%YAML:1.0
---
hog_detector: !!opencv-object-detector-hog
   winSize: [ 120, 60 ]
   blockSize: [ 16, 16 ]
   blockStride: [ 4, 4 ]
   cellSize: [ 4, 4 ]
   nbins: 9
   derivAperture: 1
   winSigma: 4.
   histogramNormType: 0
   L2HysThreshold: 2.0000000000000001e-01
   gammaCorrection: 0
   nlevels: 64
   signedGradient: 0
   SVMDetector: [ -1.00405735e-03, -3.96591524e-04, 3.43959720e-04,
       3.14896402e-04, 1.51454879e-03, -4.81658964e-04, -1.39131051e-04,
       9.01311869e-04, -1.57903545e-04, -2.95137265e-03, -1.54891959e-03,
       2.64293805e-04, -1.68214063e-03, -3.96637712e-03, -5.15342085e-03,
       8.52033321e-04, 2.80887866e-03, -2.78255180e-03, -3.94413888e-04,
       1.35087431e-03, -1.41723349e-03, -3.82631388e-03, -1.04620643e-02,
       -5.14840195e-03, -2.17319583e-03, 1.51622726e-03, -3.04926914e-04,
       -1.91731192e-03, 7.36435642e-04, -2.39510951e-03, -1.69766590e-03,
       3.25705158e-04, 4.64170211e-04, -1.52210973e-03, 5.53426507e-04,
       -1.97342481e-03, -3.72262881e-03, -2.31232611e-03,
       -7.59357587e-04, 3.52910184e-03, 5.94470464e-03, -7.01852667e-04,
       2.90360441e-03, 1.09656085e-03, -2.78791646e-03, -5.84581122e-03,
       -3.43307178e-03, -4.43304749e-03, 3.42546380e-03, -7.46120932e-04,
       -8.76537710e-03, 3.64875770e-04, 2.92633241e-03, -6.67101238e-04,
       -2.48872209e-03, 1.01749040e-03, 1.13479805e-03, 1.02665601e-03,
       -6.25289790e-03, -1.11783268e-02, -1.30455242e-03, 5.99228730e-03,
       1.78741361e-03, 2.61340896e-03, 5.61733218e-03, -7.46055332e-04,
       8.61610693e-04, 1.30866771e-04, -3.35126952e-03, -1.22953753e-03,
       1.35846296e-03, -1.05222897e-03, -5.15634008e-03, -2.52876035e-03,
       -2.13174988e-03, 2.67083105e-03, 8.46975856e-03, 3.99627816e-03,
       3.32854642e-03, 1.87420391e-03, -2.50067748e-03, -2.02686642e-04,
       -2.39089248e-03, -4.92325425e-03, -5.29333542e-04, 3.04202689e-03,
       3.32769798e-03, 9.02000989e-04, 1.66870165e-03, -3.14791058e-03,
       2.80989753e-03, 3.42379278e-03, 5.39838197e-03, -7.69110105e-04,
       -2.07153591e-03, -8.04061070e-03, 1.26015907e-03, 5.55780577e-03,
       5.97602702e-05, 1.13832182e-03, 3.48970899e-03, 3.35012883e-04,
       2.98536988e-03, 4.56211902e-03, 1.54497544e-03, 3.06760630e-04,
       -1.87947808e-04, 8.65065900e-04, -1.24546990e-03, 3.78366589e-04,
       -1.74264167e-03, 2.24103476e-03, 3.08252010e-03, 1.59055286e-03,
       6.64566469e-04, 4.57181275e-04, 2.01984440e-04, 1.44281436e-03,
       5.42630733e-04, -1.54913508e-03, 4.43719141e-03, 1.44369947e-03,
       -1.60926702e-05, 1.44350051e-03, -3.27207032e-04, -4.15652664e-03,
       1.50511682e-03, 2.78628082e-03, 6.05753250e-03, 3.58977448e-03,
       -2.65724980e-03, 1.13381224e-03, 2.77606444e-03, 1.69450964e-03,
       -1.72249251e-03, 7.40171224e-03, 4.01770696e-03, 1.73001969e-03,
       -2.07047953e-04, 2.40915618e-03, 1.33786385e-03, 8.68583680e-04,
       -4.57799732e-04, 3.36852786e-03, -1.28896080e-03, -5.89862291e-04,
       -2.39234330e-04, -3.02353379e-04, -1.64232333e-03,
       -2.10355013e-03, 1.46016668e-04, 6.82113518e-04, -6.56154007e-04,
       -1.80327508e-03, 1.46748417e-03, -8.26620671e-04, -3.67611344e-03,
       -9.41846333e-03, -5.01483819e-03, -2.53143744e-03,
       -3.49925831e-04, -2.66226823e-03, -3.45466053e-03, 9.89248045e-04,
       -3.90377967e-03, -2.60522310e-03, -2.19485466e-03, 1.48872030e-03,
       -1.36220676e-03, -7.62157317e-04, -5.59805566e-03,
       -9.95793613e-04, 6.41283579e-04, 8.44697002e-04, 7.67501362e-04,
       -4.70048748e-03, 7.87882658e-04, 5.88519673e-04, -1.25011965e-03,
       -1.66036561e-03, -3.59961484e-03, -2.82873004e-03,
       -2.92697689e-03, 2.17700703e-03, -3.42904869e-03, -4.89972718e-03,
       -1.43917231e-03, 2.13428211e-04, -4.25586943e-04, -5.40857203e-03,
       -5.06478362e-04, -1.50033826e-04, 2.22671704e-04, -5.99810062e-03,
       -1.13493204e-02, -2.75549549e-03, 4.15346259e-03, -1.56577895e-04,
       2.14238674e-03, 8.05351697e-03, 3.52106290e-04, -1.66984857e-03,
       -3.08162230e-03, -5.31852013e-03, 1.33939576e-03, 1.21875748e-03,
       -1.26467925e-03, 4.06586379e-03, 2.95735616e-03, 1.38768737e-04,
       3.95638403e-03, 3.65613145e-04, -9.95705253e-04, 4.18544951e-04,
       6.23063650e-04, 3.70121771e-03, -1.86063326e-03, -1.29151670e-03,
       -2.73273187e-03, -5.56238927e-04, -3.51697789e-03,
       -1.14070135e-03, -1.27076067e-03, -7.31730659e-04,
       -9.83643695e-04, 2.30956794e-04, -3.28544673e-04, 1.55782048e-03,
       -3.18285543e-03, -2.94540660e-03, -8.54926743e-03, 5.25626128e-05,
       4.43742611e-03, -2.65417947e-03, 4.17774962e-03, 2.73331441e-03,
       8.14963714e-04, 1.94207137e-03, 4.85025672e-03, -1.24776573e-03,
       2.48637958e-03, 8.40555236e-04, 3.67639516e-03, 3.81926587e-03,
       4.59678285e-03, -1.28498371e-03, 2.21085548e-03, 6.15223125e-03,
       -1.41547190e-03, -1.11179694e-03, 3.76269082e-03, 5.02889277e-03,
       -4.58692841e-04, -3.38508195e-04, -8.82338674e-04, 1.67900696e-03,
       -2.10654340e-04, -5.51261241e-04, 4.75063338e-04, -5.76279563e-05,
       -1.79816550e-03, 1.04478421e-03, 7.57367874e-04, 3.39460117e-03,
       -8.60628614e-04, -3.27737629e-03, 4.37263923e-04, 1.45503064e-03,
       9.56317061e-04, -2.53539323e-03, 8.40503443e-03, 4.58552828e-03,
       2.63592490e-04, -3.43856914e-03, 1.12536945e-03, 1.72722037e-03,
       1.69086119e-03, -1.68860902e-03, 5.39606530e-03, 5.74313989e-03,
       8.02279217e-04, -1.07823362e-04, 1.38371729e-03, 4.31602960e-03,
       4.28496074e-04, -6.58242207e-04, -1.03721651e-03, 2.85285758e-03,
       -1.36818399e-03, 4.95897315e-04, -6.60147925e-04, -2.35906872e-03,
       -2.64731282e-03, -2.38284050e-03, -1.52733212e-03,
       -8.50467302e-04, -1.99639495e-03, -5.07784355e-03,
       -1.06282590e-03, -4.75907698e-03, -2.36855401e-03,
       -2.07915204e-03, 1.51399907e-03, -1.78302557e-03, -2.10923096e-03,
       -6.72324980e-03, -3.30301840e-03, 2.43616814e-04, -6.69599860e-04,
       -9.17051511e-04, -7.93293212e-03, -7.59788032e-04,
       -3.87654291e-04, -3.49031971e-03, -5.13228029e-03, 1.92527531e-03,
       1.42657780e-03, -1.01290201e-03, 3.45251203e-04, -3.35449353e-04,
       4.84284028e-05, 7.07460567e-05, 8.15099338e-04, -1.49444619e-03,
       -5.44526987e-03, -1.94666267e-03, -6.09198411e-04,
       -1.23367901e-03, -7.20776245e-03, -6.01209234e-03,
       -2.38620001e-03, 7.22206954e-04, -1.47812848e-03, -1.29369320e-03,
       3.58485640e-03, -2.61236844e-03, -2.36041960e-03, -4.94287116e-03,
       -5.58086578e-03, -1.71975489e-03, -3.14425654e-03,
       -6.16549654e-03, -2.42055580e-03, -8.50599841e-04,
       -2.51226081e-03, 2.11862405e-03, -1.72686065e-04, -4.00455622e-03,
       -1.88143342e-03, -2.84659164e-03, -4.17490664e-04, 9.67938546e-03,
       2.55918899e-03, -7.34298024e-03, -1.77540106e-03, 4.07243334e-03,
       1.35814957e-03, -5.34833467e-04, -2.89087329e-04, 4.08205669e-03,
       -3.29230609e-03, -9.44601663e-04, -2.09841924e-03,
       -3.91910970e-03, -3.36752669e-03, -3.52095230e-03,
       -8.82948516e-04, 5.07508346e-04, -6.75475982e-04, 4.11818415e-04,
       -2.34213294e-04, -3.33202514e-03, 6.40214712e-04, 2.28023669e-03,
       -4.90770070e-03, -1.92544633e-03, -1.52409822e-03, 7.71118386e-04,
       4.49335249e-03, 2.47784308e-03, -5.55451668e-04, 3.54518904e-03,
       3.14981560e-03, -1.13357988e-03, -2.65723281e-03, 6.44569518e-05,
       2.44146911e-03, 1.13361189e-02, 3.85171943e-03, 1.11216609e-03,
       5.54055627e-03, 7.89153948e-03, 2.25975737e-03, -2.06052646e-04,
       -2.95560970e-03, 4.08753101e-03, 6.57009077e-04, -2.30897189e-04,
       3.20114865e-04, -2.13493686e-03, -2.50268169e-03, -1.03785621e-03,
       -4.43940284e-04, 2.63684720e-04, -1.12798414e-03, 5.91849722e-03,
       3.04390583e-03, -2.08919751e-03, -4.32028947e-03, -1.42896388e-04,
       -1.10197626e-03, -7.75859866e-04, -3.50183621e-03, 3.03008407e-03,
       2.14795512e-03, -4.11987276e-04, -7.32853077e-04, 1.22957502e-03,
       -3.79212550e-04, -2.31553381e-03, -2.67189555e-03,
       -3.44673335e-03, -1.04127487e-03, 4.99994587e-03, -1.23901817e-03,
       1.43605459e-04, 3.12324869e-03, 8.58972128e-03, 2.92654196e-03,
       2.15608554e-04, -4.44792153e-04, 8.82788619e-04, -2.90515530e-03,
       -1.33424753e-03, -2.26557814e-03, -8.35521321e-04,
       -1.46798836e-03, 1.10982126e-03, -9.56457399e-04, -1.22470467e-03,
       -3.02208588e-03, -3.56609817e-03, -3.66314402e-04,
       -2.33746436e-03, -3.03418748e-03, -9.10409261e-03,
       -2.43498269e-03, -1.35049492e-03, -3.31807393e-03,
       -6.34157704e-03, 1.09789462e-03, 1.01844803e-03, -3.30823706e-03,
       -1.63528603e-03, -5.18563809e-03, -2.79297237e-03,
       -3.56240547e-03, 1.71795604e-04, -3.53684346e-03, 1.18782988e-03,
       -7.36802001e-04, -1.59669959e-03, -1.44279344e-04, 2.31693819e-04,
       -1.06304034e-03, -2.66089197e-03, -9.91399749e-04, 1.03234383e-03,
       -3.47857177e-03, -2.02837604e-04, -2.49379966e-03,
       -1.96529133e-03, -2.88809626e-03, -2.67994299e-04,
       -3.03873676e-03, -2.32214085e-03, -4.94625513e-03,
       -3.15497187e-03, -2.39337538e-03, -6.33167988e-03,
       -2.74083694e-03, -3.64837353e-03, -5.01686055e-03,
       -4.60055377e-03, -6.22929260e-03, -2.84557207e-03, 6.90686051e-03,
       -7.69030943e-04, -1.02554364e-02, -7.12762959e-03,
       -1.36830451e-04, -2.03983369e-03, -6.13687001e-03,
       -3.89000587e-03, 9.04043391e-03, 1.06124906e-02, 6.08020200e-05,
       -2.44081649e-03, -1.57430186e-03, -3.13880737e-03, 1.69773365e-03,
       -3.52310645e-03, -4.36722301e-03, 8.88573937e-03, -7.27982086e-04,
       -1.87605372e-04, -3.24716535e-03, -6.16725069e-04, 1.22038694e-03,
       -1.97544135e-03, -4.21955483e-03, -2.26334995e-03,
       -2.16282671e-03, 3.09557258e-03, 3.49410786e-03, -2.66004179e-04,
       4.38031479e-04, -7.19414311e-05, -4.26510628e-03, -3.61404126e-03,
       -4.06271219e-03, -2.32280674e-03, 9.37876198e-03, 1.56990672e-03,
       -9.46158136e-04, -1.03764783e-03, 2.31010723e-03, -2.52039230e-04,
       -3.50966002e-03, -6.06601406e-03, 4.81284689e-03, 4.27876366e-03,
       -5.70012210e-03, -3.60677298e-03, 5.60849963e-04, -4.50469292e-04,
       2.66849832e-03, -1.34957489e-03, -7.81791401e-04, 1.09869568e-02,
       3.52848577e-03, 7.01726705e-04, -1.15749391e-03, -2.25243811e-03,
       6.69542234e-04, -8.93914432e-04, -1.36165321e-03, -2.27917195e-03,
       -2.79822543e-05, 1.41041016e-03, -6.41706807e-04, -2.85035407e-04,
       1.10557757e-03, -2.60010199e-03, -3.98192974e-03, -3.07423761e-03,
       -3.75764375e-03, -3.99937201e-03, 3.57143977e-03, -6.04758243e-05,
       -1.41222926e-03, -7.60384661e-04, 5.48872724e-03, 2.00942834e-03,
       -1.06056663e-03, -2.49333703e-03, -3.14787822e-03, 3.20225139e-03,
       -1.94334728e-03, -1.25318160e-03, 3.33671051e-05, 3.69702117e-03,
       -1.89661459e-05, -1.93554256e-03, -2.71702767e-03, 8.29763524e-03,
       -1.20897917e-03, 1.30239176e-04, -9.93010006e-04, -1.18805771e-03,
       -3.82482074e-03, -1.40499359e-03, -6.13834360e-04,
       -9.36929020e-04, -2.25269748e-03, 1.41445710e-03, 4.68598621e-04,
       -3.14605050e-03, -1.90179399e-03, -5.53148659e-03,
       -3.35463416e-03, -4.30997089e-03, -6.76930722e-05,
       -2.20338441e-03, 3.96647025e-03, -2.13311822e-03, -3.27325822e-03,
       -1.20278588e-03, -9.39583115e-04, -2.47322349e-03,
       -6.12241169e-03, -3.55905504e-03, 2.24135071e-03, 4.24521882e-03,
       -1.72906590e-03, -1.34151801e-03, -1.69785926e-03,
       -9.36534838e-04, -6.55324722e-04, -2.20836024e-03,
       -2.24559777e-03, 2.77436851e-03, 2.17949200e-04, -1.26829697e-03,
       -4.86308755e-03, -9.47874680e-04, -4.20729723e-03,
       -1.87503616e-03, -1.83940295e-03, -1.80585089e-03, 8.38303706e-04,
       8.28258786e-03, -1.21364137e-03, -9.22914501e-03, -8.60870816e-03,
       -3.83652118e-03, -4.94063972e-03, -8.06097314e-03,
       -3.73323471e-03, 9.72076692e-03, 8.42840411e-03, -2.51910021e-03,
       -3.77524761e-03, -5.48200961e-03, -1.23727275e-02,
       -2.20182328e-03, -8.67123436e-03, -9.59699135e-03, 7.92016275e-03,
       7.48179620e-03, 2.94113532e-04, -1.42207823e-03, -3.77495377e-03,
       -6.62469119e-03, -8.20749265e-05, -3.84370796e-03,
       -7.12790107e-03, -1.64073554e-03, 3.03890766e-03, 4.86557372e-03,
       1.26467331e-03, -2.22383431e-04, -1.59373053e-03, -2.66318419e-03,
       -1.58339611e-03, -1.29767589e-03, -1.20808836e-03, 9.93780792e-03,
       -1.83015433e-03, -2.14807224e-03, -4.70237993e-03, 5.01138566e-04,
       -3.17302044e-03, -4.27425466e-03, -4.95474273e-03, 6.95938012e-03,
       3.68463900e-03, -8.24087579e-03, -4.83653601e-03, -2.76084710e-03,
       -4.49706707e-03, 1.18724315e-03, -3.55623243e-03, -2.54807412e-03,
       8.98722373e-03, 2.83881556e-03, -3.16181174e-03, -4.24444303e-03,
       -3.43366456e-03, -5.49727352e-03, -3.06353468e-04,
       -2.04615717e-04, -4.57830727e-04, -2.15813448e-03, 3.94844683e-03,
       8.40139110e-04, 7.23872276e-04, 5.39974659e-04, -2.71075638e-03,
       -2.62646866e-03, -2.22914154e-03, -1.15406502e-03,
       -1.09781534e-03, 3.93842719e-03, -4.35583410e-04, -9.24881722e-04,
       -2.40513473e-03, 2.94644828e-03, 6.08531582e-06, -2.05097953e-03,
       -3.36625264e-03, -1.40889175e-03, 6.47312903e-04, -4.09155479e-03,
       -2.37854500e-03, 4.04192979e-05, 7.39563038e-05, -1.05568254e-03,
       -3.57417762e-03, -5.38847269e-03, 2.65893037e-03, -8.08348821e-04,
       -2.97718425e-03, -1.99451228e-03, -4.52502514e-04,
       -3.53259820e-04, 2.08921658e-04, -1.69543654e-03, -1.62195147e-03,
       5.32750273e-03, -2.72444973e-04, -1.32093686e-04, -1.27606560e-03,
       -6.03424909e-04, -1.43464946e-03, -1.11984089e-03,
       -1.89933495e-03, -1.17871532e-04, -1.00859313e-03, 4.77695744e-03,
       -2.66873185e-03, -2.86094402e-03, -3.91190042e-05, 1.43451884e-03,
       -1.64020224e-03, -5.35981171e-03, -4.00038064e-03, 2.04835250e-03,
       6.49706647e-03, -3.12143494e-03, -1.76813547e-03, -2.08545127e-03,
       -1.65225100e-03, -1.66423758e-03, -4.56424290e-03,
       -4.29380685e-03, 4.43782192e-03, 1.84261438e-03, -1.30440609e-03,
       -3.95106996e-04, 9.29319998e-04, 3.75871605e-04, -3.32734780e-04,
       -2.02258141e-03, -1.52644876e-03, 3.42109153e-04, 7.04349950e-03,
       5.01424547e-05, -3.27375019e-03, -2.84981448e-03, -2.14778353e-03,
       -1.61568378e-03, -3.80165293e-03, -1.82209699e-03, 8.74231919e-05,
       8.46510194e-03, -1.44539750e-03, -2.88286898e-03, -2.64296797e-03,
       -9.93055571e-03, 3.46716202e-04, -6.97495602e-03, -9.90159530e-03,
       5.82748419e-03, 3.33327288e-03, 8.07215227e-04, -1.68776675e-03,
       -4.93137026e-03, -9.03027132e-03, 1.10881287e-03, -5.49758039e-03,
       -8.44139978e-03, -3.95141728e-03, -4.75179724e-04,
       -4.45292937e-03, -2.23264564e-03, -1.29826250e-04,
       -1.76964467e-03, 1.66516530e-03, -5.57153486e-04, -9.77138639e-04,
       3.88591387e-03, 3.83064034e-03, -2.07782397e-03, -1.73201528e-03,
       -1.06906530e-03, 1.49495690e-03, -1.60445995e-03, -2.68432265e-03,
       -2.02080840e-03, 5.14631625e-03, 2.43812357e-03, -6.51918305e-03,
       -4.30116476e-03, -1.34519604e-03, -3.17258271e-03, 2.80469935e-03,
       -2.93010985e-03, -2.53017992e-03, 7.81303179e-03, -3.86101688e-04,
       -4.42965003e-03, -5.00138244e-03, -4.91578644e-03,
       -9.89946071e-03, -6.15601835e-04, -1.12938543e-03,
       -1.52219285e-03, 3.07507231e-03, 2.03192839e-03, -6.83732890e-03,
       -2.50715530e-03, -2.60465778e-03, -5.36137167e-03,
       -1.09600846e-03, -1.71903195e-03, -9.81606194e-04, 2.94237980e-03,
       3.65255983e-03, -7.23679434e-04, -4.33214009e-04, -8.93654709e-04,
       1.51845941e-03, -3.74364725e-04, -1.07504509e-03, -1.51519408e-03,
       3.18191317e-03, 1.34818046e-03, -4.47047176e-03, -2.62981630e-03,
       1.47444123e-04, 9.29855334e-04, -2.44953873e-04, -3.54732107e-03,
       -4.44157561e-03, 5.25526889e-03, -2.16022925e-03, -5.95033122e-03,
       -3.83975985e-03, -1.30208535e-03, -2.52972823e-03, 1.10125373e-04,
       -4.25556023e-03, -3.93672986e-03, 2.66804709e-03, -9.75828152e-04,
       -3.21846642e-03, -1.17790618e-03, 9.85923922e-04, -2.27204151e-03,
       -1.31354306e-03, -1.68892671e-03, -1.55910209e-03, 5.01243025e-03,
       1.38656632e-03, -1.26703305e-03, -7.63872813e-04, 5.30352816e-04,
       1.34048052e-03, -6.56058779e-04, -1.97414518e-03, -1.79126172e-03,
       1.19058299e-04, 6.91763777e-03, -2.16931105e-03, -1.62116706e-03,
       -1.77962077e-03, -2.86586839e-03, -2.48292740e-03,
       -4.36728122e-03, -3.60624515e-03, 5.04965615e-03, 2.92493217e-03,
       -3.08294361e-03, -1.24022714e-03, 1.02358370e-03, -6.36536046e-04,
       -1.76166580e-03, -2.81697302e-03, -2.44882586e-03, 1.87692267e-03,
       1.55672221e-03, -1.81443943e-03, -1.34699198e-03, -7.78433750e-04,
       3.05931969e-03, -1.56541099e-03, -7.69947597e-04, -6.36222539e-04,
       3.35040735e-03, 7.29785813e-03, -1.10742415e-03, -1.32183870e-03,
       -2.22474174e-03, -3.19750840e-03, 2.59846891e-03, -2.41838535e-03,
       -5.19513339e-03, 1.96007313e-04, 2.85444898e-03, 1.35578692e-03,
       -2.14651902e-03, -5.10781258e-03, -8.31271149e-03, 9.29205271e-04,
       -3.52016790e-03, -6.04271889e-03, -2.62520509e-03, 2.49143364e-03,
       -6.57797279e-03, -3.87730799e-03, -1.24975224e-03,
       -3.36050312e-03, 2.48411135e-03, 1.31595607e-05, -4.95263434e-04,
       3.97720002e-03, -4.24555130e-03, -2.06721667e-03, -2.76524853e-03,
       -1.45605460e-04, 1.63525157e-03, 1.53664022e-03, 2.97733909e-03,
       1.02746056e-03, 7.23980693e-03, 1.69164327e-03, -3.70246894e-03,
       -3.23724281e-03, -1.09585572e-03, -1.03133731e-04, 3.00776167e-03,
       -6.99616037e-04, -1.34158693e-03, 2.86106765e-03, -4.47554979e-04,
       -5.33484761e-03, -5.41083096e-03, -4.66074189e-03,
       -9.45970230e-03, -1.08600548e-03, -1.01192365e-03,
       -2.64445785e-03, 3.61486990e-03, 4.04057279e-03, -9.78627242e-03,
       -3.85027169e-03, -3.81212286e-03, -8.59585125e-03, 4.84398828e-04,
       -4.30099014e-03, -2.10357993e-03, 7.93519057e-03, 3.09647818e-04,
       -3.61005147e-03, -1.49183732e-03, -1.56945002e-03,
       -2.49087199e-04, 1.68195786e-03, -6.46135537e-04, 2.83946956e-05,
       7.00543309e-03, 9.65607120e-04, -2.33355467e-03, -1.11961411e-03,
       1.25823117e-05, 2.17698188e-03, 4.63696837e-04, -1.39663985e-03,
       -1.84123206e-03, 6.74053328e-03, -2.16845379e-04, -5.07119205e-03,
       -2.92536872e-03, -1.10051688e-03, -2.77462369e-03,
       -3.51134338e-04, -4.31330735e-03, -3.58924619e-03, 5.02813514e-03,
       -1.75002066e-03, -6.61536679e-03, -1.67890510e-03, 1.51723670e-03,
       -4.33931826e-03, -1.88396813e-03, -2.59303953e-03,
       -4.21392592e-03, 4.52218053e-04, -2.62209401e-03, -4.21761815e-03,
       5.33626626e-05, 2.45748015e-05, -3.29849683e-03, -1.53560995e-03,
       -1.21804629e-03, 6.30279188e-04, 4.75325622e-03, 3.63090727e-03,
       -9.42259212e-04, -9.70725727e-04, -5.71610173e-04,
       -2.34205998e-03, -1.35427841e-03, -1.84742128e-03,
       -1.28132920e-03, 1.84730836e-03, 3.46644199e-03, -3.57983075e-03,
       -2.04734923e-03, 1.29350417e-04, -1.75948173e-03, -2.24452699e-03,
       -2.52452842e-03, -2.06557708e-03, 3.36651760e-03, 2.26227194e-03,
       -2.79198890e-03, -2.31869612e-03, -2.46563461e-03, 1.14308402e-03,
       -4.93866112e-03, -1.78229494e-03, -7.98553636e-04, 7.83929508e-03,
       2.00266950e-03, -3.36075638e-04, -5.03420597e-04, -1.59008440e-03,
       -5.16868476e-03, -1.34711666e-03, 3.16249585e-04, 8.68952775e-04,
       2.07014717e-04, 5.04861772e-03, -4.13033471e-04, -1.42153550e-03,
       -2.58281897e-03, -6.22229371e-03, -1.53304602e-03,
       -1.78470067e-03, -2.48202821e-03, -1.48362713e-04, 2.38356041e-03,
       -6.79204613e-03, -3.89995868e-03, -2.50557414e-03,
       -3.17561883e-03, 1.67242263e-03, -1.28895568e-03, -1.44658866e-03,
       4.04718425e-03, 1.91163714e-03, -7.75203007e-05, -1.83660956e-03,
       2.89993081e-03, 3.94218741e-03, 1.52741675e-03, 2.92829052e-03,
       1.85810530e-03, 6.81849010e-03, -5.09424135e-03, 1.08361244e-03,
       1.59484975e-03, 1.54896837e-03, -3.86316446e-03, -1.49164267e-03,
       1.15594745e-03, 2.65042926e-03, -6.20319974e-03, 3.23959370e-03,
       -4.25617676e-03, -2.53747543e-03, -2.53536855e-03,
       -7.38962274e-03, -2.00468837e-03, -1.16328348e-03,
       -3.04716523e-04, 8.43732734e-04, 1.85681134e-03, -9.03681386e-03,
       -5.31845214e-03, -5.84271457e-03, -6.91125868e-03,
       -1.73370459e-03, -4.72672470e-03, -3.09145870e-03, 7.33273942e-03,
       8.01608374e-04, -4.66621388e-03, -2.24656658e-03, -2.11645989e-03,
       1.81178853e-03, 5.06846991e-04, 6.58918754e-04, 1.50657713e-03,
       6.85787434e-03, -2.99585564e-03, -1.83063454e-03, 6.75958756e-04,
       3.17084929e-03, -2.65197305e-04, 1.29122776e-03, 7.43171782e-04,
       3.30200419e-03, 1.60244200e-03, 1.04499143e-03, -1.84095697e-03,
       -9.59027268e-04, -8.13946317e-05, -2.46558734e-03,
       -1.29963201e-03, -2.48856517e-03, -1.52251706e-03, 7.03409128e-03,
       -1.39794429e-03, -6.48990227e-03, -2.01606308e-03, 1.27544964e-03,
       -5.26667899e-03, -2.54005101e-03, -2.37084785e-03,
       -4.50309226e-03, 2.17435285e-04, -4.64471336e-03, -6.93994854e-03,
       -1.43070030e-03, -1.72349112e-03, -4.73012123e-03,
       -3.77577497e-03, -2.57927226e-03, 4.45339270e-03, 1.31130056e-03,
       -2.54639587e-03, -2.65189353e-03, -1.52749568e-03,
       -6.04806759e-04, -2.72350898e-03, -1.23468504e-04,
       -4.86100849e-04, 4.43571713e-03, 1.38239621e-03, 2.19264207e-03,
       -1.99669832e-03, -1.19319512e-03, -5.24737872e-04,
       -5.56811683e-05, -5.93460572e-04, -6.51884009e-04,
       -5.01626404e-04, 2.15593982e-03, 3.11446725e-03, -2.02290528e-03,
       -1.82466663e-03, -2.74204020e-03, 6.14634773e-04, -4.12139110e-03,
       -1.21816469e-03, -4.66454003e-05, 8.40065628e-03, 1.70739484e-03,
       6.22398584e-05, -1.28784392e-03, -3.27572739e-03, -1.04531804e-02,
       -2.10879371e-03, 1.17208518e-03, 2.29434087e-03, 5.44244482e-04,
       1.65444007e-03, 5.62748057e-04, -1.08603024e-04, -2.03233003e-03,
       -4.66012536e-03, -8.11118342e-04, 7.38599920e-04, -5.31138794e-04,
       2.44660594e-04, -1.72943121e-03, -3.37431952e-03, -1.64651556e-03,
       -7.04659091e-04, -5.80320266e-05, 1.23055931e-03, -8.68748582e-04,
       -9.21459636e-04, 6.85895747e-03, -1.50141190e-03, 5.93266916e-04,
       -5.30560676e-04, 5.35566546e-03, 4.67762817e-03, 8.90467432e-04,
       2.02840054e-03, 2.31087953e-03, 5.49867563e-03, -1.91119954e-03,
       1.50926516e-03, 4.84593416e-04, 2.23304820e-03, -6.16365205e-03,
       -2.88050505e-03, 3.60499159e-03, 8.70762451e-04, -5.25516691e-03,
       -4.84196143e-03, -2.11375882e-03, -1.79812382e-03,
       -2.70487601e-03, -6.25028089e-03, -4.93928976e-03, 2.45367573e-03,
       1.03094440e-03, -5.44798747e-03, 2.43174611e-03, -3.98019888e-03,
       -3.60373571e-03, -3.51747987e-03, -2.97442777e-03,
       -1.23165082e-03, -2.13188981e-03, -1.14286866e-03, 6.38370402e-03,
       2.14516738e-04, -3.26390122e-03, -8.50171724e-04, 3.90745932e-04,
       3.28362873e-03, 1.86688150e-03, 8.44507595e-04, 4.39618062e-03,
       6.19771006e-03, -7.19887763e-03, -2.92094168e-03, 3.17256362e-03,
       3.94555740e-03, -1.25086773e-03, 3.40178329e-03, 2.10643886e-03,
       5.93046704e-03, -1.78365677e-03, -2.11645360e-03, -2.01237411e-03,
       1.54519943e-03, -1.19676592e-03, -2.44688219e-03, -1.67973898e-03,
       6.46293993e-05, 1.42048986e-03, -1.29207922e-03, 1.18730869e-03,
       -2.43733940e-03, -5.91594260e-04, 1.39297103e-04, -2.57085986e-03,
       -1.75754726e-03, -8.08493758e-04, -7.91477505e-04, 5.61975408e-03,
       -1.35470217e-03, -5.00170421e-03, -1.21382461e-03,
       -1.98595249e-03, -4.03192779e-03, -3.70843476e-03,
       -1.78059225e-03, 7.10517960e-03, 2.03761365e-03, -5.19607076e-03,
       -5.12693310e-03, -3.09653766e-03, -6.25455112e-04,
       -2.49847956e-03, 1.01823724e-04, -1.48866893e-04, 7.03297695e-03,
       8.99300678e-04, -5.93866408e-03, -2.75110896e-03, -9.94749018e-04,
       1.27407766e-04, -3.70438967e-04, -7.04164049e-05, -5.18963148e-04,
       1.23341626e-03, -4.18595923e-03, 2.25199852e-03, -6.26287016e-04,
       -7.67361023e-04, -1.51001348e-03, 2.73263227e-04, -1.52194838e-03,
       -2.30149482e-04, 4.33668465e-04, 3.48395598e-03, 2.12694402e-03,
       5.69313881e-04, -1.27153029e-03, -3.61005822e-03, -9.11787525e-03,
       -1.26957381e-03, 1.92509277e-03, 2.31239386e-03, 3.48887872e-04,
       1.05969771e-03, 1.76232751e-03, 1.28616719e-03, -4.14310722e-03,
       -7.44884694e-03, -1.77858607e-03, 1.42122549e-03, -2.57764885e-04,
       5.97568578e-04, 1.47928169e-03, -6.78019831e-04, -2.94335459e-05,
       -1.90321566e-03, -1.43562164e-03, -2.17740261e-03,
       -1.74864079e-03, -1.59817131e-03, 1.21958170e-03, -2.42683408e-03,
       7.26588245e-04, 3.45548498e-04, 2.66700611e-03, 4.37921379e-03,
       9.67983215e-05, 1.14603166e-03, 1.33486220e-03, 1.92552991e-03,
       -1.42570736e-03, 8.69514770e-04, -1.58816925e-04, 1.36763707e-03,
       -3.62957548e-03, 9.86822997e-04, 5.88902459e-03, 3.47621622e-03,
       -4.92939632e-03, -1.21287152e-03, 7.00061151e-04, -1.25254900e-03,
       -1.25265459e-03, -4.13722545e-03, -8.16683657e-03, 6.07738877e-03,
       2.95147789e-03, -1.98436916e-04, -3.64401867e-03, -6.35362056e-04,
       -1.42795686e-03, -1.42372889e-03, 2.61070300e-03, -3.52270599e-03,
       -1.56115578e-03, 2.12582701e-04, -4.98535344e-03, 2.58108659e-04,
       -4.24280413e-04, 3.98298464e-04, 2.02161190e-03, 1.43824867e-03,
       1.19442365e-03, 4.46931052e-04, 3.42138810e-03, 4.25638957e-03,
       -3.64426989e-03, -2.51962291e-03, 4.00410732e-03, 4.92321653e-03,
       9.06033267e-04, 4.76313150e-03, 3.58983735e-03, 6.45354157e-03,
       -6.04699017e-05, -1.58787239e-03, 1.60249893e-03, 2.60761729e-03,
       2.82738940e-03, 3.21617117e-03, -2.21878453e-03, 1.84093113e-03,
       9.37299454e-04, -1.81263010e-03, -5.95885213e-05, 7.18585390e-04,
       -1.91452750e-03, -4.39756928e-04, 3.44425021e-03, -4.74635931e-03,
       -7.93988933e-04, -9.66391584e-04, 2.76243524e-03, 5.46478084e-04,
       -1.68669084e-03, -3.39707331e-04, -4.34741843e-04,
       -1.33610726e-03, -1.26155489e-03, -2.13516556e-04, 5.56857930e-03,
       6.25183061e-03, -2.81263562e-03, -3.36684007e-03, -1.42721273e-03,
       7.15945615e-04, 4.80884628e-04, 1.58780441e-03, 1.33173575e-03,
       7.15550082e-03, 9.30453534e-04, -8.03794898e-03, -2.31938157e-03,
       -2.26144984e-04, 8.56378931e-04, 2.88028852e-04, -1.52840803e-03,
       3.37709731e-04, 2.19436153e-03, -5.52363833e-03, -6.68383786e-04,
       -1.12659880e-03, -1.59256149e-03, -1.77418708e-03, 1.83827220e-03,
       -2.14468432e-03, -6.93555223e-04, -2.10839394e-03,
       -1.25184224e-03, 2.31458503e-03, 4.99125861e-04, -5.89903910e-04,
       -1.74078159e-03, -5.04734600e-03, 1.90250532e-04, 1.63196761e-03,
       1.30991521e-03, 6.84470753e-04, 1.08549360e-03, 1.70592475e-03,
       2.63951486e-03, -2.63591623e-03, -4.44186665e-03, -1.67356478e-03,
       2.22268142e-03, 2.40540787e-04, 6.50376489e-04, 1.66494295e-03,
       -1.68767979e-03, 2.49424105e-04, -2.93149916e-03, -2.24017166e-03,
       -3.09772720e-03, -2.55458918e-03, -1.05630246e-03, 9.95787210e-04,
       4.57461429e-04, 1.30046322e-03, 3.55063414e-04, -2.38149939e-03,
       -6.28056610e-03, -5.11008780e-04, 8.54495971e-04, -4.86058998e-04,
       -8.64565664e-04, -2.01329985e-03, -5.99428487e-04,
       -4.20580982e-05, -7.28888437e-04, -6.00965868e-04, 5.67342795e-04,
       3.88820539e-03, 3.95985320e-03, -5.00954501e-03, -3.27487383e-03,
       1.80557149e-03, -2.38428736e-04, 2.24960456e-03, 7.91603641e-04,
       -6.35775551e-03, 6.91614579e-03, 2.48575816e-03, 2.30201986e-04,
       -2.16108770e-03, -3.83543363e-03, -2.82325363e-03,
       -2.93242396e-03, 2.68681836e-03, -1.99334417e-03, -1.49425864e-03,
       8.42398324e-04, -2.40533776e-03, -5.08435396e-03, -6.02469430e-04,
       -7.36364629e-04, -7.96119776e-03, -8.84771068e-03, 7.14915979e-04,
       -6.83249615e-04, 1.01841237e-04, -4.12307447e-03, 1.21920614e-03,
       -1.81970268e-03, 1.29523687e-03, 1.88353262e-03, 3.47952731e-03,
       1.44528318e-03, 1.60451303e-03, 3.69304861e-03, 3.83814541e-03,
       -1.32359262e-03, 1.73748122e-03, 2.00727349e-03, 4.68354393e-03,
       5.81076043e-03, 3.63006489e-04, 3.38452333e-03, 9.26822890e-04,
       -6.15974859e-05, 2.94551114e-03, 2.19152076e-03, -1.17019250e-03,
       1.84933213e-03, 3.19798221e-03, -3.13290674e-03, -1.95878930e-03,
       1.50331727e-03, 3.46795260e-03, -1.92580349e-03, 3.71817383e-04,
       1.03699777e-03, -2.76575307e-03, -6.15538377e-03, -2.88153859e-03,
       1.87996286e-03, 3.77769559e-03, 2.12143571e-03, -6.33406162e-05,
       -1.00615015e-03, -5.84775407e-04, 7.68301368e-04, -6.74134993e-04,
       1.12195371e-03, 6.75807707e-04, 4.40640189e-03, 1.10962363e-04,
       -5.18640131e-03, -1.59290188e-03, 4.29436972e-04, 2.22932361e-03,
       2.46106088e-03, -1.66348612e-03, 9.01488354e-04, 1.92360400e-04,
       -4.36614733e-03, -1.29199948e-03, -1.41983444e-03,
       -2.02837540e-03, -8.90675350e-04, 5.15658502e-03, -1.51289918e-03,
       1.72001033e-04, -1.47126417e-03, -1.70390296e-03, -4.20118636e-03,
       4.36025701e-04, 1.25355914e-03, -1.41203709e-04, -3.11734737e-03,
       1.61627377e-03, 1.05468358e-03, 1.30627607e-03, -3.57569690e-04,
       8.64883536e-04, 6.31706906e-04, 1.10913918e-03, -1.49942480e-03,
       -1.93324196e-03, -7.90807651e-04, 1.09499542e-03, 8.65853581e-05,
       1.20310939e-03, 2.55030091e-03, -1.35435432e-03, -1.29786102e-04,
       -4.30218736e-03, -1.96382054e-03, -1.44836516e-03,
       -1.81235780e-03, -1.23753794e-03, 2.23748293e-03, -1.44487130e-03,
       3.29720974e-03, 8.31656740e-04, -5.51245688e-03, -1.29025886e-02,
       -1.68737164e-03, 1.76330155e-03, 1.27790112e-03, -1.13462273e-03,
       -2.18894231e-04, -9.62141843e-04, -3.16903781e-04,
       -2.03914801e-03, -4.89263749e-03, -1.66874798e-03, 1.52399531e-03,
       2.01840582e-03, 1.96448294e-03, -4.51512169e-03, 1.12806461e-04,
       -6.43280742e-04, 1.89157028e-03, 2.39505456e-03, -3.86702479e-03,
       4.47409088e-03, 5.77294035e-04, -2.26932741e-03, 1.82250427e-04,
       -3.54251452e-03, -3.28562222e-03, -2.65357015e-03, 3.17217957e-04,
       -3.17049125e-04, 6.77998061e-04, 2.72629224e-03, -8.12591403e-04,
       -4.82767541e-03, -1.39312935e-03, -3.77420743e-04,
       -1.09364502e-02, -1.22366520e-02, 1.29398273e-03, 5.07391430e-03,
       6.29001809e-03, -2.76105665e-03, -4.65257186e-03, -1.45515078e-03,
       -9.25109372e-04, -2.37698271e-03, -4.31086309e-03, 2.22208467e-03,
       5.69462683e-03, 2.09233724e-03, -4.62934235e-03, -2.94014666e-04,
       -3.97900236e-04, 6.73832255e-04, 4.56868578e-03, 7.29048485e-03,
       -5.54737344e-05, 1.89352222e-03, -1.24629529e-03, -1.55810546e-03,
       5.49657876e-03, 3.32655222e-03, -2.61539564e-04, 1.87175826e-03,
       5.59934508e-03, -2.35608569e-03, 4.54609282e-04, 3.67550482e-03,
       5.30978013e-03, -3.09845922e-03, 8.94800702e-04, 6.49616704e-04,
       -2.11653672e-03, -2.12833704e-03, -1.43442862e-03, 8.11908452e-04,
       6.87094405e-03, 3.33046424e-03, -1.70374778e-03, 3.79740284e-03,
       2.44061215e-04, -1.84445467e-03, -1.09196967e-03, 2.29851902e-03,
       4.26277192e-03, 3.02957231e-03, -3.43314401e-04, -2.58848630e-03,
       -1.05064525e-03, -1.11094967e-04, 2.06286483e-03, 4.55237366e-03,
       -1.20076013e-03, -7.17209827e-04, -2.16641347e-03,
       -2.16904120e-03, -6.46133500e-04, -8.99545557e-04,
       -1.70422974e-03, -9.87958047e-04, 4.14714031e-03, -2.28843931e-03,
       -1.35333248e-04, 2.88494251e-04, 1.02413702e-03, -5.58323506e-03,
       1.83771725e-03, 3.11859953e-03, 2.49038567e-03, -3.02501791e-03,
       2.82624108e-03, 3.07899714e-03, 5.07525448e-03, 1.99651904e-03,
       2.97967752e-04, 1.99938705e-03, 8.32680147e-04, -1.93079803e-04,
       -2.17959261e-03, 6.54045958e-04, 2.37580482e-03, 2.43997993e-03,
       2.14435029e-04, -1.68800412e-03, -1.12629111e-03, -7.54948414e-04,
       1.07095821e-03, 1.87530788e-03, 2.47769116e-04, 1.32229400e-03,
       7.22727156e-04, -9.12723481e-04, -5.35519887e-03, -2.38815625e-03,
       -3.18209548e-03, 3.37376783e-04, -2.53333454e-03, -2.33492837e-03,
       -4.88231890e-04, 1.06402568e-03, -2.93737714e-04, -5.30744577e-03,
       -5.03321528e-04, 4.40363481e-04, -1.28980388e-03, -3.81726027e-03,
       -5.65087469e-03, -1.36865489e-03, 2.73157214e-03, -1.71504042e-04,
       2.66668561e-04, 1.33417163e-03, -7.86188117e-04, 1.34067493e-04,
       -5.21890586e-04, -1.32547121e-03, -1.40784972e-03,
       -4.90428938e-04, -1.92388787e-03, -4.55606170e-03,
       -1.73388177e-03, -1.95984566e-03, 1.73639471e-03, 7.26604229e-03,
       3.58890346e-03, 2.02292949e-03, 9.75563657e-04, -1.82579388e-03,
       -5.19941270e-04, -2.17628339e-03, -4.28538537e-03,
       -2.69607967e-03, 2.10547601e-04, 1.54467620e-04, -7.89391634e-04,
       2.80644279e-04, -4.91546374e-03, 4.99429239e-04, 2.12841132e-03,
       5.01565728e-03, -1.44725782e-03, -6.72460394e-03, -9.35065746e-03,
       -2.19916328e-04, 4.07869555e-03, -1.55968801e-03, 1.09894015e-03,
       3.14250449e-03, -1.48367847e-03, 1.09596481e-03, 2.64008855e-03,
       1.58345749e-04, -5.18815883e-04, 4.03648504e-04, -1.97800924e-04,
       -3.41865397e-03, -7.02598190e-04, -4.14673332e-03, 3.22963716e-03,
       6.99843094e-03, 1.86651642e-03, 8.93489050e-04, 1.42980571e-04,
       -1.56851439e-03, 6.05372828e-04, 1.22302002e-03, -2.88082846e-03,
       5.05490974e-03, 5.13576576e-03, -3.12001305e-03, 1.61592802e-03,
       -1.40001765e-03, -5.60726179e-03, 7.85490556e-04, 1.55339867e-03,
       9.85204801e-03, 7.31721101e-03, 2.46555050e-04, -1.17383979e-03,
       3.59519431e-03, 3.86905693e-03, -2.36194651e-03, 6.23589102e-03,
       4.53636190e-03, 2.37428816e-03, -1.06493500e-03, -6.31159812e-04,
       4.48369305e-04, 2.04301532e-03, -9.81467776e-04, 1.04084075e-03,
       1.86754914e-03, -9.15586366e-04, -2.14401307e-03, 1.16940668e-04,
       1.00558519e-03, 4.01215715e-04, 1.47848987e-04, 1.01902864e-04,
       1.21923489e-03, 3.55627941e-04, 8.51084711e-04, -1.84583082e-03,
       4.78012254e-03, 6.96476642e-03, -5.57906693e-04, -1.75386551e-03,
       -2.72156531e-03, -2.45975167e-03, -3.95091670e-03, 4.19533259e-04,
       1.18807948e-03, 7.36487331e-03, 6.86989352e-03, -9.49495763e-04,
       -2.04936229e-03, 1.66066608e-03, -5.73469512e-03, 1.68661994e-03,
       6.75379066e-04, 2.76572141e-03, 5.92118653e-04, 1.72282418e-03,
       -2.29026168e-03, -2.52359756e-03, 2.68636912e-04, -3.25271394e-03,
       -1.30017113e-03, -1.17233244e-03, -1.68766279e-03, 3.20447638e-04,
       -1.31343386e-05, -1.19951868e-03, -4.82599076e-04, 2.74984282e-04,
       3.16225982e-04, -4.26722970e-03, -1.38536026e-03, 1.72213404e-04,
       -5.61440422e-04, -2.91767367e-03, -4.69927583e-03,
       -9.36675118e-04, 2.34207115e-03, 2.82318477e-04, 9.12197575e-04,
       2.34973780e-03, -1.03124429e-03, -7.37243972e-04, -1.37485459e-03,
       -2.48400937e-03, -1.25422957e-03, -1.36393573e-04,
       -2.52334145e-03, 2.74831732e-03, 1.28651969e-03, -2.24226635e-04,
       7.22227851e-04, -2.84221489e-03, -1.25468476e-03, -1.21088291e-03,
       4.40892007e-04, 1.95485028e-03, -1.63423433e-03, -1.23803585e-03,
       -2.16475315e-03, -7.09994929e-04, -2.69671110e-03,
       -1.82035693e-03, -1.52136351e-03, -8.95691512e-04,
       -5.32823615e-04, -1.00259762e-03, -3.71973729e-04, 1.28931564e-03,
       -3.71259009e-03, -5.57235721e-03, -8.07956420e-03,
       -9.05672321e-04, 3.84967728e-03, -2.15597032e-03, 4.46994882e-03,
       4.55949735e-03, 1.06748666e-05, 7.55006098e-04, 3.74972355e-03,
       -9.35699500e-04, 7.88266363e-04, 5.46757830e-04, 2.72085238e-03,
       2.00200849e-03, 4.31696465e-03, -2.80010107e-04, 7.67921389e-04,
       5.09789726e-03, -2.61384668e-03, -2.00297101e-03, 2.48283008e-03,
       3.26592010e-03, -1.16145273e-03, -7.79415073e-04, -1.46518822e-03,
       2.37144902e-03, -1.40030787e-03, -1.88658352e-03, 5.81828004e-04,
       -9.98583419e-05, -3.75388982e-03, 1.83919771e-03, -4.14271810e-04,
       6.00500265e-03, 1.28639210e-03, 2.45344359e-03, -1.95641373e-03,
       1.47547410e-03, 2.96216784e-03, -3.85136134e-03, 8.45231395e-03,
       5.10653807e-03, 2.08489233e-04, -2.11623474e-03, -5.71198354e-04,
       2.14095367e-03, 3.03518353e-03, -1.06478180e-03, 5.67967026e-03,
       5.08357445e-03, 1.63362792e-03, 2.64769216e-04, 3.09309037e-03,
       5.78282261e-03, 6.18225895e-04, -2.22355989e-03, -2.73659127e-03,
       1.88031455e-03, 9.48626199e-04, -3.92704475e-04, -6.06328947e-04,
       1.69397180e-03, 2.47756159e-03, 1.42731617e-04, -6.67541346e-04,
       -8.52223428e-04, -6.42628991e-04, -3.84863373e-03,
       -2.44369294e-04, 1.10055320e-03, 2.67509511e-03, 6.20837416e-03,
       -1.74099265e-03, -2.23305076e-03, 7.50501582e-04, -6.09927299e-03,
       8.63144232e-04, 4.46863502e-04, 4.19222377e-03, 6.09937240e-04,
       4.00764402e-04, -2.90755718e-03, -3.35194706e-03, -1.84518736e-04,
       -6.28758175e-03, 4.14598966e-03, 1.85317430e-03, 1.41585188e-03,
       -7.61357544e-04, 2.91332137e-03, 2.96534831e-03, -4.67237725e-04,
       -8.31308542e-04, -1.22439011e-03, -1.78289611e-03,
       -6.60308055e-04, 9.49298410e-05, -4.07528511e-04, -1.39413064e-03,
       -2.18229787e-03, -7.78793881e-04, 3.73341842e-04, -1.24796206e-04,
       -1.45056707e-04, 1.43451721e-03, -1.36774580e-03, -1.92650699e-03,
       -1.91725965e-03, -2.81299464e-03, -2.31805677e-03,
       -7.80013215e-04, -2.27132323e-03, 2.13395315e-03, 7.10594992e-04,
       -2.45971000e-03, 1.50019565e-04, -3.41017381e-03, -1.98645727e-03,
       -1.65761553e-03, -1.30403950e-03, 2.71529099e-03, 4.68367757e-03,
       1.51807640e-03, -3.10783111e-03, -7.54086766e-04, 2.70459824e-03,
       1.02556311e-03, -1.37079778e-05, -4.77092515e-04, 1.99443242e-03,
       -2.71664816e-03, -6.08795381e-04, -1.27206603e-03,
       -3.64984130e-03, -3.73744988e-03, -2.93875323e-03,
       -1.28296192e-03, 2.03447780e-04, -1.09709799e-03, 1.82867295e-03,
       1.74247415e-03, -3.61590204e-03, -5.12480794e-04, 2.23251199e-03,
       -3.63969454e-03, -2.80647841e-03, -2.30844389e-03,
       -4.88884281e-04, 3.97454295e-03, 3.47389234e-03, 4.80319228e-04,
       2.10235827e-03, 2.00349209e-03, -4.04500589e-03, -3.30953579e-03,
       -1.10907119e-03, 1.35138945e-03, 8.58542696e-03, 2.33305572e-03,
       6.32507436e-04, 4.20951424e-03, 8.32962897e-03, 1.82226114e-03,
       -2.52860511e-04, -2.74857134e-03, 1.03871559e-03, -6.55513606e-04,
       -1.32058561e-03, 5.60699264e-04, -2.43801740e-03, -4.15599020e-03,
       -2.55415379e-03, -8.85412679e-04, 5.60858345e-04, -4.47778543e-03,
       5.61272865e-03, 3.04882112e-03, -3.30604753e-03, -4.66186740e-03,
       -8.12154263e-04, -2.02688528e-03, -5.60971210e-04,
       -4.92003234e-03, 1.55256665e-03, 1.85228465e-03, -7.37500814e-05,
       -2.06085644e-03, -1.80431805e-03, 1.49796577e-03, -2.51907669e-03,
       -4.79416316e-03, -6.33289292e-03, -1.04748621e-03, 7.22565036e-03,
       5.93777950e-05, -2.17222507e-04, 5.41070104e-03, 9.05895513e-03,
       5.18077891e-03, -3.21058091e-04, -1.96099374e-03, -2.90094293e-03,
       -1.71059894e-03, -3.86050699e-04, 1.74807225e-04, -4.40395757e-04,
       2.44772473e-05, -2.30533956e-03, -2.65244441e-03, -1.33492849e-05,
       -4.34186310e-03, 5.73234574e-05, -4.14400973e-04, 3.07565997e-03,
       -1.40837068e-03, -1.73488876e-03, -3.81798088e-03,
       -4.52936208e-03, -1.85079151e-03, -6.68556849e-03, 6.71611459e-04,
       -2.28698525e-04, -9.32697556e-04, -2.68866844e-03, 1.19224575e-03,
       2.41234689e-03, -1.82178023e-03, -1.94827630e-03, -3.53768351e-03,
       2.21790932e-03, 2.13403018e-05, 2.22367723e-03, 4.97761089e-03,
       7.80445244e-03, 5.38884296e-06, -6.60276914e-04, -1.44371099e-03,
       -2.42716190e-03, 8.72019664e-05, 5.85857953e-04, -4.41408629e-04,
       -1.15040725e-03, -2.02254113e-03, -9.24882945e-04,
       -1.39538886e-03, -2.93478777e-04, -2.73831509e-04, 2.13366398e-03,
       1.83297831e-04, -4.40962845e-03, -9.68204055e-04, -4.22931509e-03,
       -1.27154856e-03, -1.89623912e-03, -2.76180217e-03, 2.74992804e-03,
       7.07455399e-03, 1.24183937e-03, -6.20815484e-03, -3.76358489e-03,
       3.64588166e-04, -6.58477715e-04, -3.13893077e-03, -2.86157872e-03,
       1.72910059e-03, 7.91608915e-03, 5.12521510e-05, -7.86117569e-04,
       -1.12913444e-03, -8.99845851e-04, 1.18530903e-03, -4.54592169e-04,
       -1.17931503e-03, 4.85895947e-03, 6.35937089e-04, 1.34697545e-03,
       -2.28727027e-03, -1.09337270e-03, -1.56304610e-04,
       -1.85681484e-03, -2.79074092e-03, -1.36233354e-03,
       -2.02253531e-03, 2.54906435e-03, 4.12000204e-03, 5.05216769e-04,
       -8.53680423e-04, -1.74227101e-03, -7.39789801e-03,
       -3.51617206e-03, -3.76864360e-03, -4.30967286e-03, 8.42683390e-03,
       -1.07497338e-03, -1.01371738e-03, -6.99181459e-04, 2.46606302e-03,
       -5.08022902e-04, -3.23148770e-03, -5.59749873e-03, 3.76055972e-03,
       2.84267310e-03, -6.59023412e-03, -3.91454948e-03, 6.15920464e-04,
       2.09183479e-03, 2.50530476e-03, -2.46360665e-03, -1.76570832e-03,
       9.67836659e-03, 3.19236657e-03, 1.79803511e-03, -2.03268626e-03,
       -4.24360530e-03, -2.66473158e-03, -1.62644661e-03,
       -1.72197015e-03, -3.55165033e-03, -1.78514735e-03,
       -1.72883505e-04, -8.55487946e-04, -2.29673693e-03,
       -9.81635530e-04, -6.05417066e-04, -3.79820005e-03,
       -4.30684956e-03, -6.68824324e-03, -6.91599166e-03, 3.30948131e-03,
       -6.03672757e-04, -2.06552143e-03, -2.91670935e-04, 5.64119546e-03,
       1.45905395e-03, -2.27872306e-03, -6.71752961e-03, -5.39735053e-03,
       5.18031791e-03, -1.12418074e-03, -5.49027522e-04, 1.27309514e-03,
       1.56391494e-03, -2.62845220e-04, -3.88622051e-03, -5.95532870e-03,
       7.84156565e-03, -7.78956746e-04, 1.68949511e-04, 1.10370573e-03,
       -6.90343091e-04, -1.54937757e-03, -1.52115885e-03,
       -2.35681795e-03, -1.30463322e-03, -3.70509992e-03,
       -4.63198929e-04, -7.78358837e-04, -1.97220012e-03,
       -4.65718517e-03, -4.10031207e-04, 1.14945334e-03, -1.93511334e-03,
       -2.99554598e-03, -4.78980504e-03, -1.81936528e-04,
       -1.12010131e-03, 2.06838944e-03, 3.97464866e-03, 4.79613570e-03,
       -2.15792842e-03, -1.18350494e-03, -4.94726188e-03,
       -1.93223567e-03, -7.03972000e-06, -8.54797137e-04, 8.64944195e-06,
       2.33675516e-03, 3.97350965e-03, -1.17455062e-03, -7.54923327e-04,
       -8.45375878e-04, 6.30954164e-04, 2.19891919e-03, -2.24379819e-05,
       -2.43910728e-03, -3.85807012e-04, -2.29238183e-03,
       -3.14883713e-04, -5.07486868e-04, -9.68315348e-04, 1.61773595e-03,
       8.21178593e-03, 5.37536398e-04, -4.82619973e-03, -4.14609443e-03,
       -1.98585214e-03, -1.61785795e-03, -3.78502300e-03,
       -2.46414472e-03, 2.04339321e-03, 1.07446043e-02, -7.68960628e-04,
       -1.75303768e-03, -3.71549092e-03, -5.34442207e-03, 1.32902176e-03,
       -1.89963775e-03, -3.78869753e-03, 4.14884044e-03, 6.34839758e-03,
       3.08793766e-04, -9.42589133e-04, -1.79511856e-03, -4.98368824e-03,
       -4.77818307e-04, -9.38080309e-04, -2.76421220e-03, 1.10310758e-03,
       3.17958160e-03, 4.06908104e-03, 8.34804494e-04, -1.56735105e-03,
       -2.40774220e-03, -3.58441542e-03, -1.37579686e-03,
       -9.87068401e-04, -1.80119008e-03, 5.49571589e-03, -3.66726285e-03,
       -3.90169327e-03, -3.74010415e-03, 9.31281946e-04, -2.45214556e-03,
       -4.41723084e-03, -5.01430267e-03, 4.59959032e-03, 6.71726943e-04,
       -8.33427534e-03, -6.20681886e-03, -8.16546846e-04,
       -7.98550842e-04, 2.11917562e-03, -4.81040124e-03, -3.50673194e-03,
       6.80715172e-03, 1.42162759e-03, -3.27989343e-03, -4.34798002e-03,
       -3.49089596e-03, -5.12906490e-03, -7.86179386e-04,
       -1.15027942e-03, -1.17320626e-03, -3.05449846e-03, 2.96905288e-03,
       6.01949287e-04, -9.97955649e-05, -4.07428568e-04, -2.91283475e-03,
       -2.89299595e-03, -1.86847243e-03, -2.16528564e-03,
       -4.73618647e-03, 5.05658705e-03, 1.02835789e-03, -1.73140096e-03,
       -1.07790204e-03, 3.99613380e-03, 4.48453473e-04, -1.83032337e-03,
       -5.71814971e-03, -3.45996208e-03, 3.57348775e-03, -2.48360145e-03,
       -2.72139465e-03, 9.29524598e-04, -3.03882617e-03, -7.26095808e-04,
       -5.35590760e-03, -9.44899675e-03, 4.55685426e-03, -6.43753854e-04,
       -5.13765076e-03, -3.46540892e-03, -1.32300751e-03,
       -1.33337366e-04, 1.74823753e-03, -3.75637924e-03, -3.60147119e-03,
       6.36098906e-03, 6.43516192e-04, -5.31867612e-04, -2.11782812e-04,
       -1.95152068e-03, -1.99358491e-03, 5.11514430e-04, -1.13424787e-03,
       -1.87166466e-03, -2.49369349e-03, 4.57197166e-04, -1.29756506e-03,
       1.41443708e-03, 2.28277873e-03, 2.04370823e-03, -2.88533466e-03,
       -2.08455836e-03, -4.71354043e-03, -1.15686958e-03, 2.46960524e-04,
       -1.76580832e-03, -5.86804992e-04, 3.23888357e-03, 4.24267072e-03,
       -1.70278247e-03, -2.21921643e-03, -2.95810844e-03,
       -4.90396225e-04, 5.32944796e-05, -1.70624617e-03, -2.19226466e-03,
       -2.49387405e-04, 2.21217866e-03, 4.31285182e-04, -1.97730307e-03,
       -2.75420080e-05, 3.70298466e-03, 4.45948308e-03, 4.94354579e-04,
       -1.21223810e-03, -1.31398533e-03, -6.49902970e-04,
       -6.39314821e-04, -1.37084268e-03, -8.94284924e-04, 4.01418016e-04,
       9.31078475e-03, -1.16042641e-03, -1.81795529e-03, -2.88602198e-03,
       -4.37494693e-03, 2.01236713e-03, -1.29705318e-03, -4.07646829e-03,
       2.02588132e-03, 6.00758707e-03, 7.40651914e-04, -2.07989989e-03,
       -2.66105519e-03, -7.16272974e-03, -2.36152860e-04,
       -9.72728187e-04, -4.26122360e-03, -1.29982387e-03, 1.40023744e-03,
       -1.91302144e-03, -1.55262102e-03, -4.98517940e-04,
       -9.02954838e-04, 8.58547864e-04, -5.78588551e-05, -6.22940133e-04,
       3.14775552e-03, 2.14352109e-03, -3.24236671e-03, -3.37200146e-03,
       -1.36122282e-03, 2.54675932e-03, -9.87826614e-04, -2.12530931e-03,
       -1.96536887e-03, 2.59690289e-03, -4.26277722e-04, -7.09837675e-03,
       -5.52575197e-03, -6.14199962e-04, 1.34880684e-04, 3.10127437e-03,
       -3.47764161e-03, -2.57335394e-03, 5.88948140e-03, 6.61857252e-04,
       -4.96337144e-03, -5.96770924e-03, -4.88171168e-03,
       -7.63939554e-03, 5.07237637e-05, -2.75059137e-03, -3.81259946e-03,
       4.75564366e-03, 1.40065188e-03, -6.42126752e-03, -3.16311605e-03,
       -3.99981858e-03, -6.49677357e-03, -1.51638011e-03,
       -2.48311902e-03, -1.10842532e-03, 2.38520536e-03, 4.75669233e-03,
       -1.33817818e-03, -1.10465789e-03, -1.98312569e-03, 1.92123686e-03,
       2.50619138e-04, -1.37570477e-03, -3.31183779e-03, 2.13072961e-03,
       4.24319506e-03, -4.80225729e-03, -4.17899061e-03, 4.37620591e-04,
       -5.76735998e-04, -5.34758030e-04, -5.33444667e-03,
       -8.07456300e-03, 6.44081784e-03, 1.97340944e-03, -6.99469261e-03,
       -4.71910601e-03, -2.21940293e-03, -5.45439404e-03, 1.45468791e-03,
       -8.01028591e-03, -7.79445702e-03, 4.83561773e-03, 1.59821950e-03,
       -3.75071983e-03, -1.54195877e-03, 1.98271545e-03, -5.58584323e-03,
       -3.29755852e-03, -3.99569422e-03, -2.75723916e-03, 6.83510164e-03,
       9.09539114e-04, -4.66477475e-04, 1.37417301e-04, 4.27542662e-04,
       1.72473316e-04, -1.69723725e-03, -1.69773179e-03, -1.93871616e-03,
       -2.36386055e-04, 9.06013593e-04, -2.20887735e-03, -1.27616024e-03,
       3.01740738e-03, 4.60307347e-03, -1.32867787e-03, -2.45171902e-03,
       -2.09429557e-03, 1.89537893e-03, 2.77475361e-03, -2.12787674e-03,
       -3.38898133e-03, -5.10457285e-05, 4.53395944e-04, -4.20733064e-04,
       -3.60302348e-03, -8.40807988e-05, 5.15097240e-03, 3.36986431e-03,
       9.25553977e-05, -3.86127387e-04, -4.81862429e-04, -3.63137037e-03,
       -9.65051004e-04, -2.56095431e-03, 6.62339560e-04, 7.93710817e-03,
       4.23145993e-03, -7.08462729e-04, -1.19118067e-03, -1.30490505e-03,
       -1.90651254e-03, 1.27849798e-03, -3.05438676e-04, -1.87041308e-03,
       1.56977656e-03, 5.46374917e-03, 7.27847684e-04, -2.11214344e-03,
       -2.60938681e-03, -7.71623058e-03, -8.35846702e-04,
       -9.96429240e-04, -3.34259588e-03, 1.01910591e-04, 5.21953916e-04,
       -3.98755679e-03, -2.69118091e-03, -1.36040268e-03,
       -2.10903119e-03, 1.30651088e-03, 4.70387778e-04, -3.41677049e-04,
       4.04528435e-03, -1.21045019e-03, -7.85525714e-04, -1.02267053e-03,
       -7.67166610e-04, 4.31612105e-04, 1.04650331e-03, 1.18149130e-03,
       8.48102674e-04, 5.66519564e-03, -4.29835927e-04, -4.75325249e-03,
       -3.73870856e-03, -9.08957794e-04, 1.61783840e-03, 3.04713682e-03,
       -1.02590269e-03, -8.81866377e-04, 2.30451697e-03, 8.17333232e-04,
       -5.28149912e-03, -6.34243712e-03, -5.29290410e-03,
       -8.13819468e-03, -9.12424759e-04, -2.24087411e-03,
       -3.44452844e-03, 4.57897084e-03, 3.46954633e-03, -9.90564097e-03,
       -4.88496572e-03, -6.00581942e-03, -1.05569288e-02,
       -2.31902581e-03, -4.31798771e-03, -9.83101781e-04, 9.16627422e-03,
       1.26619067e-03, -3.82596115e-03, -2.06743414e-03, -1.65552751e-03,
       -1.74285041e-03, -2.39405097e-04, -2.29802914e-03,
       -3.18911072e-04, 5.12660900e-03, 1.11774006e-03, -4.01846133e-03,
       -2.32207123e-03, 2.16566725e-04, 2.32865079e-03, 1.14167656e-03,
       -2.82881246e-03, -3.62708489e-03, 9.90040880e-03, 3.27701680e-03,
       -5.75953955e-03, -4.72312747e-03, -3.37667810e-03,
       -5.09908376e-03, -4.84086544e-04, -7.66616082e-03,
       -6.75757043e-03, 6.15116535e-03, 1.86924485e-03, -6.51094178e-03,
       -1.98648823e-03, 4.46735328e-04, -8.25544540e-03, -4.16952651e-03,
       -5.95996995e-03, -4.15466493e-03, 7.30977487e-03, -3.64970043e-03,
       -3.62175866e-03, 4.43615543e-04, 4.67115169e-05, -3.97465518e-03,
       -2.56576645e-03, -1.92583096e-03, 1.66969968e-03, 7.18470057e-03,
       -1.12874224e-03, -1.38274918e-03, -8.85102490e-04, 1.38256466e-03,
       2.03066738e-03, 2.42705035e-04, -1.20187516e-03, -6.14746532e-04,
       3.15222307e-04, 2.73315609e-03, -2.26147519e-03, -2.98313727e-03,
       -1.26494095e-03, -1.33414846e-03, -7.88652804e-04,
       -3.67970415e-03, 2.25127675e-04, 7.88863096e-03, 1.01162225e-03,
       -3.04723180e-05, -1.72208354e-03, -1.33546942e-03,
       -8.14253557e-03, -1.74470944e-03, -3.28570255e-03, 2.77799601e-03,
       8.57850816e-03, -2.07291660e-03, 7.59877032e-04, 4.66132369e-05,
       -1.45902438e-03, -7.24572688e-03, -1.35399925e-03, 3.50071059e-04,
       9.17710786e-05, 4.33784816e-03, 2.83388002e-03, 2.90140997e-05,
       -6.65936444e-04, -8.00500100e-04, -4.08668118e-03,
       -7.88956415e-04, -4.44801582e-04, -1.00300077e-03, 7.49697094e-04,
       -5.53911261e-04, -4.09456529e-03, -2.40922044e-03,
       -1.74005784e-03, -2.78226845e-03, 7.44861900e-04, 2.31198592e-05,
       -7.08557898e-04, 5.92576992e-03, -7.36494781e-04, -4.67287085e-04,
       -1.23135571e-03, 1.38213567e-04, 6.46061846e-04, 4.20792639e-04,
       1.48981740e-03, 1.75054267e-03, 4.06882912e-03, -1.44515792e-03,
       7.00728269e-04, 7.95140630e-04, 9.15585028e-04, -5.06858458e-04,
       -2.62032030e-04, 5.40458248e-04, 1.08324434e-03, -2.35554832e-03,
       2.51771393e-03, -4.23455238e-03, -2.58042524e-03, -2.99155852e-03,
       -7.00464007e-03, -1.30860670e-03, -1.74286345e-03,
       -6.21003564e-04, 1.33148651e-03, 2.88395374e-03, -9.45714116e-03,
       -5.76300314e-03, -6.36354834e-03, -7.31871789e-03,
       -2.03521526e-03, -4.94118035e-03, -2.22123973e-03, 9.32495575e-03,
       3.16212280e-03, -5.69899287e-03, -2.23670062e-03, -2.51283590e-03,
       5.50994475e-04, -2.57889787e-03, -1.56040140e-03, 1.89047807e-03,
       8.44040699e-03, -1.06119306e-03, -1.60779885e-03, 7.60210154e-04,
       1.70874968e-03, -1.38843746e-03, 1.31637126e-03, 7.32960762e-04,
       3.35365837e-03, 2.55271979e-03, 2.86711077e-03, -2.85136001e-03,
       -2.10485025e-03, -6.74648094e-04, -3.65941413e-03,
       -2.89187580e-03, -4.85930312e-03, -2.60337070e-03, 1.15145594e-02,
       1.27289828e-03, -6.97384356e-03, -3.11420485e-03, 4.61099931e-04,
       -8.34880304e-03, -3.51933460e-03, -5.11884177e-03,
       -4.36066417e-03, 5.74556598e-03, -1.13602425e-03, -6.12996565e-03,
       -5.74261416e-04, -3.36901192e-03, -4.26218938e-03,
       -5.41256228e-03, -4.55318997e-03, 4.48592426e-03, 4.82544396e-03,
       -2.08047382e-03, -4.78406996e-03, -2.83999299e-03, 4.52796434e-04,
       -3.79519304e-03, 5.22364047e-04, 8.52123252e-04, 6.97041955e-03,
       3.30157299e-03, 1.39356963e-03, -1.01033167e-03, -9.40024562e-04,
       -1.18614116e-03, -2.39388435e-03, -1.04320841e-03,
       -2.51394021e-03, -8.51056320e-05, 4.97103389e-03, -2.18816494e-04,
       -3.11163807e-04, -2.36064359e-03, -1.60314364e-03,
       -7.64341233e-03, -1.86916580e-03, -3.18762311e-03, 1.91471807e-03,
       6.63348986e-03, -4.59930161e-03, 1.98804919e-04, 1.18405536e-04,
       -1.05620897e-03, -8.38710926e-03, -1.54370419e-03, 1.02559465e-03,
       -1.22447335e-03, 1.78810605e-03, -2.03661295e-03, -3.66050424e-03,
       -1.80092314e-03, 8.17885273e-04, -3.29983421e-03, -6.71428861e-04,
       7.54327106e-04, 8.61672394e-04, 4.67681373e-03, -1.09812338e-03,
       -1.52589369e-03, -1.06764701e-03, -9.19108221e-04,
       -1.20931701e-03, 5.21568465e-04, -3.34598211e-04, -2.86972965e-04,
       3.51286819e-03, -2.85306224e-03, -2.90507858e-04, -7.47803890e-04,
       7.08036008e-04, 1.49428041e-03, 3.08639952e-04, 9.15052020e-04,
       9.56819509e-04, 2.58121477e-03, -3.83292185e-03, 6.48025831e-04,
       7.92540726e-04, 6.66801818e-04, -3.23868543e-03, 4.82385542e-04,
       1.56231725e-03, 2.11840263e-03, -4.21450380e-03, -2.40978156e-03,
       -7.87359662e-04, -2.91419914e-04, -3.98108910e-04,
       -9.39792721e-04, -2.50232988e-03, 4.48845385e-04, 1.57683084e-04,
       -2.74987123e-03, 1.30955689e-03, -4.24855109e-03, -3.40177095e-03,
       -3.01045086e-03, -2.78470898e-03, -1.06745644e-03,
       -2.39985157e-03, -1.37467391e-03, 3.90034122e-03, 1.58158457e-03,
       -3.51872155e-03, -1.66976638e-03, -8.85871763e-04, 1.00071658e-03,
       -1.18762581e-03, -1.06135558e-03, 3.34812119e-03, 6.03201985e-03,
       -5.28830756e-03, -2.91080610e-03, 1.18632813e-03, 2.60935957e-03,
       -1.73611427e-03, 3.58591974e-03, 2.61001708e-03, 5.47582190e-03,
       1.38773827e-03, -2.60295230e-03, -1.00916333e-03, 1.91303098e-03,
       -9.63653263e-04, -2.15896987e-03, -2.81152898e-04, 3.86990811e-04,
       2.10159412e-03, -6.45746477e-04, 1.73167197e-03, -2.90068588e-03,
       -1.17331534e-03, 8.11337144e-04, -4.56831511e-03, -2.63593998e-03,
       -1.79251772e-03, -1.53848005e-03, 5.30146901e-03, -3.61197232e-03,
       -5.42428344e-03, -9.85238352e-04, -3.03346477e-03,
       -6.00789255e-03, -5.09916432e-03, -2.59583001e-03, 6.82818098e-03,
       5.19756181e-03, -6.50489423e-03, -7.08510960e-03, -5.92634594e-03,
       1.08291802e-03, -3.84437875e-03, 3.08897492e-04, 9.26746870e-04,
       6.45428104e-03, 4.12004953e-03, -1.02689788e-02, -4.40355437e-03,
       -1.92580628e-03, 1.80558127e-04, -1.86774461e-03, -3.07576352e-04,
       3.58979392e-04, 3.31885042e-03, -5.02461847e-03, 3.29296483e-04,
       -2.91926204e-04, -7.52842228e-04, -4.17530886e-04,
       -3.08812922e-03, -6.32554060e-04, -1.23742828e-03, 4.25276608e-04,
       4.02013212e-03, -3.36410617e-03, -6.22425985e-04, 1.41353639e-05,
       7.24148296e-04, -6.11398648e-03, -3.98230070e-04, 1.45058543e-03,
       -1.07685826e-03, 3.69987614e-03, 2.49520032e-04, -5.85700478e-03,
       -3.45614529e-03, -2.59446970e-04, -4.55946429e-03,
       -1.00175466e-03, 2.12634122e-03, 3.63416341e-03, 4.84815892e-03,
       -2.92670284e-03, -2.20189526e-04, 2.12700106e-04, -1.87276746e-03,
       -3.67901201e-04, -2.31441110e-03, 1.12133403e-03, 1.79455453e-03,
       -7.97595596e-04, -1.27028662e-03, -7.98693873e-05,
       -3.12368677e-04, 6.68809924e-04, 1.15797657e-03, 1.71282925e-04,
       3.34307173e-04, 1.10080946e-04, 3.40296217e-04, -3.75979533e-03,
       7.10717577e-05, 3.86218977e-04, 2.21657945e-04, -2.33423989e-03,
       8.09681078e-04, 1.88102818e-03, 1.72327436e-03, -6.06177002e-03,
       -5.03765466e-03, -4.66888829e-04, -6.47739857e-04, 4.96355933e-04,
       -1.22474987e-04, -4.58853552e-03, 1.77556323e-03, 3.00642481e-04,
       -4.27302392e-03, -2.35351501e-03, -1.00475132e-04,
       -5.39527799e-04, -4.67524573e-04, 1.66883704e-03, -1.87284150e-03,
       -3.16810590e-04, 2.00686307e-04, -2.81484635e-03, 8.88786046e-04,
       -1.29017746e-03, -2.97071063e-04, 7.62531126e-04, -8.45542876e-04,
       -2.01561837e-04, -8.49219563e-04, 2.62667215e-03, 2.93175364e-03,
       -3.59927514e-03, -2.85219727e-03, 1.61585433e-03, 2.13639205e-03,
       -1.47233324e-04, 3.64589761e-03, 1.90623733e-03, 5.68357157e-03,
       1.15885132e-03, -1.16283470e-03, 9.05833382e-04, 3.22049251e-03,
       1.07688981e-03, 4.52014245e-03, -2.09331512e-03, 1.27561012e-04,
       1.38183869e-03, -3.48456833e-03, -2.91837845e-04, -1.79996729e-04,
       -1.94056297e-03, 3.44139698e-05, 2.56636064e-03, -5.67978760e-03,
       1.02790829e-04, -1.48531294e-03, 1.02165760e-03, -6.81497273e-04,
       -3.19023547e-03, -6.49036490e-04, -1.15166570e-03,
       -3.60192009e-03, -1.99934025e-03, -8.18479602e-05, 6.42420165e-03,
       7.54816271e-03, -5.65499067e-03, -6.34811306e-03, -4.56907321e-03,
       1.80639478e-03, -2.11842754e-03, 2.70034274e-04, 3.21454532e-03,
       6.90575270e-03, 2.22135405e-03, -5.97157655e-03, -5.80186164e-03,
       1.25234932e-04, 5.47488977e-04, -1.47339341e-03, -4.14213119e-03,
       1.21267149e-04, 4.26587462e-03, -2.22807843e-03, -2.79567530e-03,
       -1.58090959e-03, -2.52114888e-03, -3.57290939e-03,
       -7.86091899e-04, -5.49030397e-03, -7.55507150e-04,
       -9.14335833e-04, -3.46839079e-03, 7.37833252e-05, -7.40619609e-04,
       -1.14380418e-04, 9.16354707e-04, -4.43998212e-03, 3.25484463e-04,
       1.51244213e-03, 3.26160865e-04, 4.98326542e-03, 1.80535344e-03,
       -4.35593678e-03, -2.12048530e-03, -3.48242640e-04,
       -4.83511528e-03, -5.89418050e-04, 4.04214067e-03, 5.40753733e-03,
       4.87323012e-03, -5.42514771e-03, 1.77225607e-04, 8.41242203e-04,
       -4.27872222e-03, 1.29307550e-03, -3.14120087e-03, 1.83742365e-03,
       4.52745799e-03, -1.21575338e-03, -1.32923434e-03, 9.36743570e-04,
       -1.80793395e-05, -4.38904017e-03, -1.76548655e-03,
       -2.03994522e-03, -1.36992661e-04, 1.43419218e-03, 3.98432661e-04,
       -1.96666620e-03, -8.47984338e-04, -4.78880829e-05,
       -3.23155895e-04, -1.31402526e-03, 6.81216552e-05, 1.11384853e-03,
       8.40030960e-04, -3.30732763e-03, -5.76604810e-03, 1.21091514e-04,
       -5.34668739e-04, 2.13039573e-03, 4.13456000e-03, -3.35641438e-03,
       2.57426547e-03, -7.97308530e-05, -5.41973067e-03, -3.43934260e-03,
       -7.08788750e-04, -1.00795680e-03, -2.65581446e-04, 5.70877036e-03,
       -1.92763063e-03, -8.20801710e-04, 4.90118749e-04, -4.14882414e-03,
       -3.98633769e-03, -7.27256178e-04, -2.23566458e-04,
       -3.13876360e-03, -5.10326261e-03, -2.22723116e-04,
       -3.70594717e-05, -1.60864554e-04, -4.77622403e-03, 5.59018990e-05,
       -1.80326332e-03, 5.08904923e-04, 1.43764901e-03, 2.46859947e-03,
       9.71595873e-04, 2.24595176e-04, 2.73874472e-03, 2.17525475e-03,
       -1.53842091e-03, 7.84114993e-04, 2.38994206e-03, 2.47981818e-03,
       6.44706236e-03, -9.63914499e-04, 4.92157065e-04, -3.04391491e-04,
       -3.55744199e-03, 4.59874922e-04, 4.83521872e-04, -2.87492597e-03,
       1.11201673e-03, 1.42506731e-03, -4.43136459e-03, -2.62064976e-03,
       -2.81122266e-05, 3.87622218e-04, -4.08433517e-03, -5.25013602e-04,
       4.35208203e-05, -2.12512491e-03, -5.17784478e-03, -2.24508811e-03,
       1.90398470e-03, 2.72874860e-03, 8.46996190e-05, -5.69334894e-04,
       -2.61889771e-03, -2.38520559e-03, 8.21693277e-04, 1.57177250e-03,
       -2.15624066e-04, 1.82800216e-03, 5.40154241e-03, 2.36377143e-03,
       -4.61178040e-03, -4.03991202e-03, 1.89828221e-03, 1.69401313e-03,
       -3.97606433e-04, -4.72798012e-03, -5.12456812e-04, 3.02540604e-03,
       -1.57671061e-03, -2.22689821e-03, -3.59919411e-03,
       -3.19672260e-03, -2.32868874e-03, 1.10311306e-03, -1.18789531e-03,
       1.58931507e-04, 3.15245125e-03, -2.76389765e-03, -7.49832159e-03,
       -7.96932145e-04, 1.38278713e-03, -4.27227467e-04, -3.17147328e-03,
       2.34430819e-03, 2.67840666e-03, 2.49361084e-03, -1.61479646e-03,
       -1.98035414e-04, -1.47764815e-03, -8.65166890e-04,
       -6.82193902e-04, -2.77909939e-03, 4.80224517e-05, 3.22791538e-03,
       4.37060557e-03, 4.07362683e-03, -4.46861284e-03, 6.86444837e-05,
       5.93334436e-04, -4.18008119e-03, 1.51235319e-03, -1.41431476e-04,
       2.35068495e-03, 4.52713668e-03, -3.82448343e-04, -2.87247472e-03,
       1.76614570e-03, -3.52653879e-04, -5.99174341e-03, -2.15174397e-03,
       -9.16861638e-04, 1.79500994e-03, 3.91590549e-03, 2.98102561e-04,
       -2.28387333e-04, 5.49988530e-04, -2.42155351e-04, -2.65504001e-03,
       4.51428823e-05, -7.23918085e-04, -1.79172072e-04, 5.51496632e-04,
       9.29265734e-05, -3.80186760e-03, -1.17729272e-04, -2.19730791e-04,
       1.90073496e-03, 4.90986975e-03, -1.20578019e-03, 1.26892340e-03,
       -5.57008549e-04, -3.35015403e-03, -2.93085491e-03,
       -1.11408241e-03, -1.18934852e-03, -1.16613565e-03, 5.90916537e-03,
       -9.97313531e-04, -1.08624843e-03, 1.19734020e-03, -3.59025900e-03,
       -6.96858997e-03, -2.10538856e-03, -5.42346854e-04,
       -6.34363806e-03, -8.89249891e-03, 9.12336749e-04, 1.42898038e-03,
       3.01316177e-04, -4.46699094e-03, -3.32312239e-03, -6.33133575e-04,
       -4.17685689e-04, -1.54518150e-03, -1.33540865e-03, 1.05199497e-03,
       2.43884185e-03, -3.16315243e-04, -3.87918996e-03, -1.25765149e-03,
       -2.43406917e-04, 8.06182390e-04, 5.03109535e-03, 7.18201324e-03,
       -9.99292475e-04, 6.98062533e-04, -1.27892639e-03, -2.20060907e-03,
       1.35493453e-03, 1.34606648e-03, -1.70478760e-03, 1.70365057e-03,
       5.65131428e-03, -3.83706414e-03, -1.47774920e-03, 1.02781865e-03,
       1.72020064e-03, -6.01017429e-03, 1.58666051e-04, -9.64249717e-04,
       -4.34652856e-03, -4.14525531e-03, -3.68032791e-03, 3.94774863e-04,
       5.45561779e-03, -1.48557927e-04, -2.13672454e-03, 2.56951596e-03,
       -8.91516858e-04, -3.49275512e-03, -3.14444536e-03, 4.13614383e-04,
       3.03926086e-03, 2.67730607e-03, -6.08160160e-04, -6.33804640e-03,
       -2.48491834e-03, 2.58521264e-04, 2.21699150e-03, -1.89757877e-04,
       -4.19130642e-03, -7.57930859e-04, 5.73611287e-05, -2.38389918e-03,
       -2.04362022e-03, -3.12223681e-03, -7.21302640e-04,
       -3.40034545e-04, 5.56086190e-03, 1.14562258e-03, 3.43401823e-03,
       4.79024230e-03, -1.11198251e-03, -6.58121705e-03, 3.73607618e-03,
       3.92214721e-03, 1.25681749e-03, -4.86719282e-03, 1.47708249e-03,
       5.91324689e-03, 9.57019627e-03, 2.74523790e-03, 4.39672847e-04,
       2.64562340e-03, 4.94745735e-04, -2.94492091e-03, -8.59975815e-03,
       -4.59080911e-04, 5.12486696e-03, 4.99192206e-03, 4.02404730e-05,
       -1.49591162e-03, -2.85705755e-04, -1.89213184e-04,
       -2.97350250e-03, 4.85706283e-03, 1.49528135e-03, 1.57671073e-03,
       1.71150197e-03, 4.37329581e-05, -1.44467480e-03, 2.21870677e-03,
       1.47880608e-04, -5.63048245e-03, -9.23057902e-04, 2.80592183e-04,
       2.74932128e-03, 4.05900739e-03, 2.84259627e-03, 3.20908468e-04,
       2.20226799e-03, 4.27201121e-05, -3.59255774e-03, -3.38659127e-04,
       -9.09337308e-04, 9.96138551e-04, 2.75100442e-03, 2.03802856e-03,
       1.28515088e-03, 7.32052547e-04, -6.57868804e-04, -1.29191997e-03,
       -4.11508285e-04, 1.11351290e-03, 1.78351940e-03, 1.98122440e-03,
       1.47693756e-03, -1.33615418e-03, -2.82522815e-04, -7.03560654e-04,
       4.67288686e-04, 2.45926203e-03, 1.28195016e-03, 4.80416173e-04,
       7.55151195e-05, -3.33628530e-04, 5.94421464e-04, -5.65696624e-04,
       -2.43630121e-03, -1.86787127e-03, -2.79359659e-03,
       -1.09729078e-03, -7.50606647e-04, -6.65055995e-04,
       -1.36375451e-03, -2.84231454e-03, -1.22570153e-03, 1.54248916e-03,
       -7.12498964e-04, -3.78779275e-03, -4.23841644e-03,
       -8.75579135e-04, 1.69139344e-03, -3.14715253e-05, 1.07096578e-03,
       1.16842450e-03, -9.64737264e-04, 3.18597420e-04, 8.38100561e-04,
       1.12326146e-04, -1.34487450e-03, 8.86555645e-05, -2.72634206e-04,
       -2.67391303e-03, -1.35970139e-03, -3.98568017e-03, 1.76275230e-03,
       5.61926048e-03, 7.57363508e-04, 5.37847867e-04, -1.37604395e-04,
       -6.93285081e-04, -1.45031803e-03, 8.96390004e-04, -3.38802091e-03,
       3.76499281e-03, 3.54271056e-03, -4.24874714e-03, 4.97093657e-04,
       -2.46119592e-03, -7.59454258e-03, -1.72578858e-03, 1.18025520e-03,
       8.17935448e-03, 8.27802531e-03, 2.75960914e-03, -2.16288539e-03,
       1.82695920e-03, 2.59599532e-03, -6.14334317e-03, 4.87737684e-03,
       4.01835656e-03, 2.97261751e-03, -6.89400244e-04, 8.97021964e-05,
       -1.73275941e-03, 6.43827720e-04, -2.76722985e-05, -8.94411991e-04,
       3.57300858e-03, -2.37695291e-03, -3.84412566e-03, 3.39361985e-04,
       1.26470323e-03, 8.89767660e-04, -2.62600079e-04, -2.31070313e-04,
       5.53740712e-04, -3.14280181e-03, -4.85203287e-04, -1.68397417e-03,
       9.95188672e-03, 6.69722399e-03, -3.18687037e-03, -4.42653289e-03,
       -3.60026909e-03, -1.79485010e-03, -6.30133320e-03, 7.72847445e-04,
       2.46551051e-03, 1.02271792e-02, 5.59676439e-03, 5.80108317e-04,
       -5.64940739e-04, 1.71444064e-03, -2.05273996e-03, 9.96608869e-04,
       -1.02387137e-04, 2.58710515e-03, 4.60107811e-04, -1.87128817e-03,
       -3.45362793e-03, -4.01080726e-03, -3.22862616e-04,
       -5.64043503e-03, 4.09758510e-03, 6.24232052e-05, -2.09670674e-04,
       -2.73619866e-04, -4.66267549e-04, 1.27640509e-04, 5.12070197e-04,
       2.16858010e-04, 2.51824548e-03, 3.20657942e-04, -7.62609532e-04,
       2.00733962e-03, 4.45793523e-03, 4.05530492e-03, 7.87662691e-04,
       -2.85398867e-03, -1.48544309e-03, 2.97031016e-03, 9.96873714e-04,
       1.44773151e-03, 2.59278482e-03, 2.40924465e-03, -2.58632354e-03,
       -1.42427138e-03, -1.10732927e-03, 2.14679982e-03, 5.37186535e-03,
       1.71883544e-03, -2.21514085e-04, -4.18087991e-04, 1.53355859e-03,
       2.60216533e-03, 2.26836605e-03, -1.30854477e-03, -1.90823537e-03,
       1.27797632e-03, -6.91265159e-04, -2.07349527e-04, -1.26643409e-03,
       -2.03214178e-04, 1.88985534e-04, -7.25850579e-04, -5.64758084e-04,
       -3.65408778e-04, -6.47928609e-05, -1.79695943e-03,
       -6.32129493e-04, 5.42063382e-04, -1.13322062e-03, -1.39921845e-03,
       -2.35288194e-03, -5.11826132e-04, 1.24079851e-03, 5.45447867e-04,
       3.27512552e-03, 3.46779893e-03, -2.04157596e-03, 1.56468799e-04,
       2.30183150e-03, 4.92978201e-04, -7.84305739e-04, -5.50159952e-04,
       8.60615866e-04, 1.06275862e-03, 1.43941911e-03, 1.02592872e-04,
       -5.81465545e-04, 9.35531803e-04, -1.93039293e-03, -2.65888660e-03,
       3.67306668e-04, 4.21252887e-04, -1.36088463e-03, -2.62419810e-04,
       -1.16295798e-03, 2.12611863e-03, 1.56658248e-03, -1.04293739e-03,
       3.26520414e-04, -3.28630616e-04, -3.69519042e-03, -6.41058477e-06,
       -1.20924052e-03, 5.80347702e-03, 3.79268266e-03, 3.99486208e-03,
       -2.56399601e-03, 6.88953500e-04, 2.28533777e-03, -6.40719198e-03,
       4.52423282e-03, 4.93324595e-03, 3.66081740e-03, 3.00163869e-04,
       1.92272104e-03, 4.97677480e-04, 2.63030920e-03, -7.26916769e-04,
       3.83996475e-03, 2.67474144e-03, 1.49682176e-03, 9.58449615e-04,
       3.90192633e-03, 5.59656322e-03, -1.04700460e-03, -2.76598264e-03,
       -2.91291228e-03, 5.00792405e-04, 6.22172665e-04, -6.30759110e-04,
       -5.70416451e-04, 3.79847246e-03, 4.19234065e-03, -5.91134420e-04,
       -2.67467136e-03, -2.74050329e-03, -1.75706355e-03,
       -4.51525487e-03, -6.09056791e-04, 1.66820467e-03, 4.95921494e-03,
       7.19584385e-03, -7.89479760e-04, -2.13055103e-03, 1.33835172e-04,
       -2.97341053e-03, 4.27264441e-03, 2.35033850e-03, 5.95699484e-03,
       -9.58339486e-04, 3.24815814e-03, -2.01730710e-03, -3.79617815e-03,
       -2.68788380e-03, -5.25808614e-03, 4.88208747e-03, 2.86009978e-03,
       2.98576779e-03, -2.91439821e-04, 2.79439171e-03, 3.01025389e-03,
       -1.45457382e-03, -1.73854793e-03, -7.70328916e-04, 3.88712360e-05,
       -8.38961976e-04, 4.26613173e-04, 1.89907837e-03, 1.54762261e-03,
       4.02745121e-04, -1.05585018e-03, -3.81489983e-04, 1.70591194e-03,
       1.76519353e-03, 2.51928740e-03, 1.83677278e-03, 1.27506594e-03,
       -3.03880428e-03, -1.01563579e-03, -8.53843871e-04, 1.57805241e-03,
       4.34660399e-03, 4.78207227e-03, 3.66343098e-04, -1.11203000e-03,
       -1.27886608e-03, -1.57712074e-03, 2.79246224e-03, -2.05042888e-03,
       -3.84445488e-03, 2.78972066e-03, 1.49109145e-03, 6.75776973e-04,
       -5.39732864e-04, -1.01403485e-03, 2.51973420e-03, 2.51349551e-03,
       -8.82088032e-04, -2.40914314e-03, -4.85009041e-05,
       -7.40102434e-04, -9.54967400e-05, -2.31300393e-04,
       -1.05871179e-03, 8.89470568e-04, -8.54947488e-04, -4.38535411e-04,
       3.10216419e-05, -9.74320224e-04, 2.05218676e-03, 2.84844683e-03,
       -2.22243904e-03, -5.40947891e-04, 2.80900695e-03, -2.62068817e-04,
       -1.43297610e-03, -1.63123070e-03, -8.63202557e-04, 2.06500711e-03,
       2.69143796e-03, 5.82336041e-04, -9.80504323e-04, -3.21879605e-04,
       -3.36711342e-03, -2.24454654e-03, -7.91620172e-04,
       -4.86434321e-04, 1.75028446e-03, 4.35869704e-04, 3.76065203e-04,
       1.14918547e-03, 4.90797265e-03, 5.52647456e-04, -1.24114202e-04,
       -8.03257048e-04, -5.21154492e-04, -1.16426952e-03,
       -7.71441380e-04, 9.08253365e-04, -3.68125911e-04, -1.54527952e-03,
       -2.71839765e-03, -1.01909786e-03, 8.50713404e-04, -5.00697363e-03,
       3.39389918e-03, 2.85675353e-03, -1.00528379e-03, -2.55231373e-03,
       -8.47911404e-04, -1.48882065e-03, -6.70750160e-04,
       -3.46151763e-03, 2.43604329e-04, 7.00808087e-05, 3.41930601e-04,
       -4.85750963e-04, 1.73252297e-03, 3.37100984e-03, -1.77248148e-03,
       -4.29170532e-03, -6.07326068e-03, -2.47572782e-03, 6.21930650e-03,
       5.35865314e-04, 2.58318352e-04, 3.81719181e-03, 9.42064915e-03,
       3.68629792e-03, -8.09544639e-04, -3.15196393e-03, -3.93068558e-03,
       -2.79369811e-03, -5.50109195e-04, 9.03349137e-05, -6.78383163e-04,
       1.94769027e-03, -3.19638918e-03, -3.91546218e-03, -2.76027131e-04,
       -5.76913496e-03, 2.05614977e-03, 2.65139737e-03, 5.01000183e-03,
       -2.18586065e-03, -9.92080546e-04, -2.44838768e-03,
       -5.23276953e-03, -5.81054483e-03, -7.76774948e-03, 2.13649450e-03,
       1.35656714e-03, -1.29642128e-03, -3.25065269e-03, 2.58581457e-03,
       2.15317844e-03, -3.43690137e-03, -3.57124885e-03, -1.25154984e-04,
       3.28186853e-03, -1.55428788e-05, 3.29914014e-03, 6.34035608e-03,
       7.02120131e-03, 1.13582355e-05, -3.82307015e-04, -2.54795793e-03,
       -9.49929468e-04, 1.05874310e-03, 1.26576470e-03, 4.13177506e-04,
       -1.04766351e-03, -4.42268187e-03, -4.79711744e-04,
       -8.37113010e-04, 3.59821453e-04, 1.05232710e-03, 3.67361889e-03,
       -7.37790615e-05, -1.10260642e-03, -1.93430472e-03,
       -2.80528772e-03, 5.92652766e-04, -2.80832453e-03, -4.30215383e-03,
       1.41552358e-03, 4.75813262e-03, 2.42092414e-03, -1.80756452e-03,
       -1.98754203e-03, 4.70661063e-04, 8.37553409e-04, -2.71616620e-03,
       -3.43128853e-03, -9.85531835e-04, 2.04962748e-03, 3.33672133e-03,
       1.04708632e-03, 3.58089013e-03, 3.19103268e-03, -3.13598721e-04,
       -1.32426783e-03, 2.96169263e-03, 1.36187603e-03, 7.98301538e-04,
       9.20072605e-04, -7.20712938e-04, -6.65128115e-04, 9.81164281e-04,
       -3.84483603e-04, -5.21870621e-04, -5.53169055e-04,
       -1.13041501e-03, 2.01516994e-03, 3.04259174e-03, 5.91219810e-04,
       -1.34684937e-03, -2.85313115e-03, -3.28028458e-03,
       -1.41732278e-03, -7.38645787e-04, -1.60325319e-03, 4.19610599e-03,
       -6.56144344e-04, -1.88163354e-03, -7.84692529e-04, 4.73385677e-03,
       -5.95592883e-06, -1.01987715e-03, -1.92615390e-03,
       -4.74151602e-04, -3.63944971e-04, -3.07499082e-03,
       -1.72687205e-03, 1.45215876e-04, 3.44883557e-03, 9.82422032e-04,
       -1.21073052e-03, -9.94599308e-04, 4.16410435e-03, 3.33372573e-03,
       1.66909106e-03, -1.19937223e-03, -3.67098791e-03, -2.00078497e-03,
       -7.03472237e-04, -1.44804327e-03, -1.77972915e-03,
       -1.85707363e-03, -8.81790591e-04, -3.41335617e-05,
       -2.45764386e-03, -9.06019413e-05, 8.97543039e-04, -2.74702325e-03,
       -3.93537246e-03, -5.96429687e-03, -6.98476657e-03, 5.90637699e-03,
       4.25632694e-04, -5.55879611e-04, 7.57748319e-04, 6.74610073e-03,
       3.08387331e-03, -5.45519229e-04, -5.53599698e-03, -6.37785951e-03,
       8.70129932e-03, -5.48001699e-05, 7.58496404e-04, 1.49361358e-03,
       1.95130112e-03, -2.30443024e-04, -3.02378112e-03, -5.52742230e-03,
       8.62864405e-03, 2.64038044e-05, 9.56899195e-04, 2.32310104e-03,
       -1.10618211e-03, -4.01145173e-03, -1.65244029e-03,
       -3.71876941e-03, -2.59254617e-03, -4.52887127e-03, 1.92264502e-04,
       -4.39709664e-04, -3.50336172e-03, -7.33748777e-03,
       -1.11666205e-03, 1.48048438e-03, -3.42897605e-03, -3.46577703e-03,
       -3.13394214e-03, 1.77441351e-03, -1.70893560e-04, 3.35246464e-03,
       8.12325533e-03, 4.03948314e-03, -1.08810491e-03, -1.99371949e-04,
       -8.20260774e-03, -1.39383972e-03, 8.30801553e-04, -1.33032887e-03,
       4.20212746e-04, 5.15188277e-03, 4.13440121e-03, -2.52451020e-04,
       -8.10545869e-04, -2.11259630e-03, 7.69715931e-04, 5.74436563e-04,
       -4.34218906e-04, -5.95265825e-04, -5.09751029e-04,
       -3.57540743e-03, -5.02945273e-04, -1.46484864e-03,
       -1.41672906e-03, 1.61294802e-03, 5.11760870e-03, 2.91955075e-03,
       -1.70018501e-03, -4.62466106e-03, -4.46625939e-03,
       -1.75674073e-03, -3.43656447e-03, -2.60469760e-03,
       -9.76547133e-04, 1.65491982e-03, 1.38597179e-03, 7.46177568e-04,
       4.33409214e-03, -1.33788341e-03, -2.82123359e-03, -3.59043409e-03,
       3.09686898e-03, 1.36190897e-03, -1.85970892e-03, -1.28393446e-03,
       -5.38671971e-04, -2.95989186e-04, 3.01339634e-04, 3.50185612e-04,
       -4.56756214e-04, 6.13902157e-05, 3.81978485e-03, 1.37309777e-03,
       1.93120760e-03, 4.56356240e-04, -6.24888635e-04, -1.98253524e-03,
       -1.19582773e-03, -4.46150982e-04, -6.63118553e-05,
       -8.03177769e-04, 2.11742031e-03, -2.45136162e-03, -3.34490766e-03,
       -2.12735403e-03, 2.31398735e-03, -4.29154636e-04, -1.59892172e-03,
       -1.84913212e-03, 1.57112081e-03, -9.26948793e-04, -7.32680131e-03,
       -4.92206216e-03, -6.39148639e-04, 2.39202287e-03, 1.88767863e-03,
       -2.39535747e-03, -2.36850744e-03, 5.83356246e-03, -8.67652761e-06,
       -1.58972933e-03, -1.80816697e-03, -8.46165465e-04,
       -1.75891537e-03, 5.60734261e-05, -4.58658877e-04, -6.40448241e-04,
       -1.05549279e-03, 2.20999657e-03, 5.01146947e-04, -7.97496235e-04,
       -3.10170028e-04, -2.51633720e-03, -1.02277438e-03,
       -1.77971751e-03, -1.78235443e-03, -3.95936472e-03, 8.44677724e-03,
       2.14391784e-03, -1.13160087e-04, -1.49755168e-03, 3.94547312e-03,
       1.65662088e-03, -3.25722678e-04, -4.75001428e-03, -3.21263378e-03,
       4.13242867e-03, -1.97119988e-03, -1.38109352e-03, 1.75236433e-03,
       -3.20899824e-04, -1.02940691e-03, -4.04415745e-03,
       -8.93194135e-03, 4.16360376e-03, 2.39455281e-03, -3.79615626e-03,
       -2.38361233e-03, -3.55560594e-04, 2.02590157e-03, 2.13633408e-03,
       -3.85183142e-03, -3.79252434e-03, 8.40783305e-03, 2.31089862e-03,
       7.16302238e-05, -8.92023905e-04, -5.64595126e-03, -1.22380699e-03,
       1.32025382e-03, -1.57862715e-03, -2.62226583e-03, -2.60263076e-03,
       2.69068405e-03, -1.44992967e-03, 2.38033710e-03, 5.69927599e-03,
       1.51837245e-03, -3.04940762e-03, -1.64729264e-03, -7.14498432e-03,
       -6.37795660e-04, 2.10830430e-03, -1.59953628e-03, -5.63385664e-04,
       3.96533683e-03, 3.88826220e-03, 2.23519769e-03, -3.66118293e-05,
       -6.39038812e-03, -1.59888572e-04, 1.85640960e-03, 1.22818383e-04,
       -4.23289090e-03, -1.70688680e-03, 1.69732096e-03, 2.33850791e-03,
       -1.39215717e-03, -3.16659316e-05, 3.93702229e-03, 4.48574981e-04,
       1.49813085e-03, -7.33190682e-04, -2.42053485e-03, -4.48086485e-03,
       -9.26417881e-04, -1.59437268e-03, -9.61671176e-04,
       -1.78262373e-04, -2.62373214e-04, 1.95991262e-04, 2.53265869e-04,
       2.67485483e-03, -4.34848899e-03, -2.88753374e-03, -3.55477445e-03,
       1.80024037e-03, 1.05597835e-03, 1.74216367e-03, -1.94269978e-03,
       -1.41937251e-03, -2.15988955e-03, 1.01837306e-03, 9.59449972e-04,
       -1.52856798e-03, -1.05756754e-03, 3.71407624e-03, 2.45216652e-03,
       1.45770333e-04, -1.71700306e-03, -1.16995384e-03, 3.16074537e-03,
       1.88338582e-03, 1.10811763e-03, -7.88230682e-04, -1.12732187e-05,
       1.83085765e-04, -2.20791134e-03, -1.95078854e-03, -1.07282342e-03,
       1.17700791e-03, -9.56387448e-05, -6.68043445e-04, -6.57387543e-04,
       8.21084133e-04, -2.47284351e-03, -6.76935306e-03, -4.57611727e-03,
       -6.62792125e-04, 1.90823397e-03, 1.95373385e-03, -1.79397233e-03,
       -1.63927733e-03, 3.90437129e-03, -1.32496387e-03, -3.89205897e-03,
       -3.39927268e-03, -2.08830088e-03, -4.61892970e-03,
       -4.02914011e-04, -1.67818042e-03, -1.82347943e-03,
       -1.74154047e-04, 2.92936689e-04, -2.42150552e-03, -1.53230620e-03,
       -1.44726806e-03, -4.43341862e-03, -8.52915400e-04,
       -1.40792225e-03, -6.91858120e-04, 1.31186878e-03, 5.09238010e-03,
       -7.88063800e-04, -1.03312475e-03, -2.21215328e-03, 2.44244904e-04,
       3.89738590e-04, -1.10612425e-03, -3.23448051e-03, 1.98252103e-03,
       4.63996362e-03, -4.31452552e-03, -3.13495286e-03, 9.08473914e-04,
       1.11389998e-03, -8.48042255e-04, -5.26535930e-03, -8.63211229e-03,
       4.93366038e-03, 1.60600047e-03, -4.43072757e-03, -3.78483953e-03,
       -5.53683203e-04, -2.79966276e-03, 9.35685239e-04, -8.66963249e-03,
       -8.56381375e-03, 4.37579490e-03, 2.20431760e-03, -2.24499498e-03,
       -1.59236358e-03, 2.41735391e-03, -5.22943027e-03, -3.25662107e-03,
       -4.43755696e-03, -2.90798047e-03, 8.19999166e-03, 1.49442116e-03,
       -1.04740507e-03, -2.20153466e-04, 1.17632654e-03, -1.29966927e-03,
       -3.19550256e-03, -3.04617221e-03, -3.34304804e-03,
       -3.41881707e-04, 1.11711700e-03, -1.26190053e-03, -1.55920000e-03,
       1.37953274e-03, 3.86917731e-03, 2.07932340e-03, -1.13534846e-03,
       -6.57828758e-03, -9.66209569e-04, 1.37845485e-03, -1.57132524e-03,
       -4.99631744e-03, -3.60905402e-03, -4.07850603e-03,
       -1.61348109e-03, -3.08792666e-03, -9.90212662e-04, 1.29388308e-03,
       8.50557256e-03, 1.77922356e-03, -4.31123684e-04, -1.79321854e-03,
       -5.08455699e-03, -2.13659741e-03, -5.26898447e-03,
       -9.43303981e-04, 1.01956865e-02, -6.96157222e-04, -1.21890349e-04,
       -1.40844975e-04, 6.31399627e-04, -3.02977557e-03, -1.55600975e-03,
       -1.83676649e-03, -1.98909998e-04, 5.02406270e-04, 1.47509680e-03,
       -7.39111740e-04, -2.06903042e-03, -3.67482286e-03, 2.29038778e-04,
       1.37180381e-03, -1.16472272e-03, -2.12256587e-03, 2.77949474e-03,
       6.18836703e-03, 1.85442111e-03, -2.01126141e-03, -1.76280783e-03,
       2.17041746e-03, 1.54904462e-03, 1.10910181e-03, -1.09208433e-03,
       -4.98344016e-04, 2.90144444e-03, 1.62790832e-03, 1.93434616e-03,
       1.50674942e-03, 5.44979412e-04, -1.20268343e-03, -2.01853621e-03,
       -9.09630093e-04, 2.66263029e-03, -1.82372518e-03, -3.32500716e-03,
       -2.05850415e-03, -4.12476424e-04, 1.13263563e-03, 1.26796914e-03,
       -5.14724699e-04, -5.73031313e-04, 1.29611857e-04, -8.69545911e-04,
       -4.16304311e-03, -3.04204761e-03, -3.00691812e-03,
       -5.43072680e-03, -3.14823876e-04, -1.95006793e-03,
       -1.62406918e-03, -4.09020489e-04, -1.08796312e-03,
       -5.03582228e-03, -3.55831860e-03, -2.80017522e-03,
       -6.11802563e-03, -1.03349180e-03, -2.98917759e-03,
       -1.67493767e-03, 2.00887956e-03, -1.49223124e-04, -1.78027223e-03,
       -8.45765346e-04, -6.08658476e-04, -1.70672848e-03,
       -3.31734947e-04, -1.46611372e-03, -9.36361903e-04,
       -8.01732822e-04, 4.81866009e-04, -3.37310345e-03, -2.00450979e-03,
       2.11282735e-04, 3.60335899e-03, 3.12977907e-04, -2.94087874e-03,
       -3.63200647e-03, 7.15293502e-03, 2.14776234e-03, -3.65654170e-03,
       -3.28297401e-03, -1.26709731e-03, -2.86393519e-03,
       -9.54500108e-04, -8.92010890e-03, -7.15484703e-03, 4.60054539e-03,
       -1.79441494e-03, -5.99341979e-03, -2.53623561e-03, 1.39169407e-03,
       -9.22776666e-03, -3.42888688e-03, -4.43590432e-03,
       -4.58416482e-03, 2.05992372e-03, -6.16657734e-03, -2.50187167e-03,
       3.95734445e-04, -9.28224879e-04, -6.23174943e-03, -1.90700521e-03,
       -9.78022581e-04, 5.26747841e-04, 4.21627006e-03, -9.99122276e-04,
       -7.93861225e-04, -2.36494467e-03, 9.09007853e-04, 4.16290807e-03,
       1.53192948e-03, -1.70691125e-03, -1.95055490e-03, -1.63865578e-03,
       2.47285631e-03, -1.50438305e-03, -4.85217012e-03, -5.02263010e-03,
       -4.93837800e-03, -3.43797635e-03, -5.05005661e-03,
       -6.47775654e-04, 3.98622407e-03, 3.67468339e-03, 5.92907600e-04,
       -3.33872857e-03, -5.21721458e-03, -1.50615554e-02,
       -5.74798090e-03, -5.98822301e-03, 1.07808923e-03, 9.12907999e-03,
       -2.09595868e-03, 2.12442642e-03, -2.86629511e-04, -2.36874167e-03,
       -1.05367936e-02, -2.62712082e-03, 1.64519617e-04, -2.23936583e-03,
       4.39715711e-03, -7.70412094e-04, -3.03258566e-04, -1.78516249e-03,
       -2.56922306e-03, 3.16786172e-04, 1.16298813e-03, 7.49058090e-05,
       -1.90658483e-03, 1.18139538e-03, 6.20034570e-03, 2.47479812e-03,
       -1.28061266e-03, -1.60729745e-03, 1.54748792e-03, -5.42439055e-04,
       1.84501245e-04, -4.81352123e-04, 7.90450067e-05, 5.33919083e-03,
       1.78458262e-03, 3.61058186e-03, 3.73868528e-03, -1.26559846e-03,
       -3.70659819e-03, -4.03627614e-03, -1.84848357e-03, 2.25888914e-03,
       8.15869134e-04, 5.01695147e-04, 1.29632026e-04, -2.29228739e-04,
       -5.04678022e-03, -2.04433617e-03, 9.81559424e-05, -1.63570861e-04,
       3.69550427e-03, -7.50907056e-04, -1.96300680e-03, -1.10914069e-03,
       -1.29740278e-03, -3.33837979e-03, -2.45416828e-04,
       -9.73492512e-04, -2.95081147e-04, -2.03645377e-05,
       -1.05189148e-03, -4.68962733e-03, -3.18867527e-03,
       -2.53551267e-03, -4.22889041e-03, -7.34919566e-04,
       -2.26193736e-03, -1.64554070e-03, 1.59896247e-03, -7.32800923e-04,
       -3.39048705e-03, -1.53512903e-03, -5.75163926e-04,
       -1.81420438e-03, -7.41262571e-04, -2.40092236e-03, 3.03549114e-05,
       1.36805372e-03, -7.32385321e-04, -1.05842145e-03, 1.68711369e-04,
       1.45172919e-04, 2.18754503e-04, 7.66284531e-04, 3.23194428e-04,
       1.25805952e-03, -8.95959311e-05, 6.79382181e-04, -2.41468055e-03,
       -1.54922821e-03, -8.10152502e-04, -3.43674654e-03,
       -2.72149267e-03, -4.60027065e-03, -2.57648854e-03, 9.40292329e-03,
       -2.08790204e-03, -5.82871959e-03, -2.78173923e-03, 7.13760033e-04,
       -8.82689655e-03, -2.44549103e-03, -2.87371757e-03,
       -2.75051990e-03, 1.34413666e-03, -5.31935692e-03, -5.00834594e-03,
       6.34280907e-04, -2.13438994e-03, -6.72761537e-03, -3.35846562e-03,
       -2.25636107e-03, 2.71223020e-03, 4.39238641e-03, -3.95609019e-03,
       -5.20466361e-03, -3.57919373e-03, 1.31155166e-03, -3.81111656e-03,
       1.06880674e-03, 1.73647352e-03, 5.93988411e-03, 9.74091410e-04,
       3.96752637e-03, -7.41744996e-04, -2.27479334e-03, -3.72469542e-03,
       -3.91267939e-03, -1.15875050e-03, -3.53083760e-03,
       -6.84989442e-04, 6.87764864e-03, 1.47626235e-03, -1.91750354e-04,
       -4.54880344e-03, -3.52762500e-03, -1.49404695e-02,
       -3.97610385e-03, -3.65838408e-03, 7.94368272e-04, 7.81605951e-03,
       -4.97506419e-03, 5.66655595e-04, -9.27669098e-05, -2.90660583e-03,
       -4.26697591e-03, -3.08004511e-03, 1.56184006e-03, -3.13549605e-03,
       1.68593146e-03, -1.64238294e-03, -5.17142611e-03, -2.26062257e-03,
       2.91902153e-03, -2.02043005e-03, -1.98166212e-03, 7.02117279e-04,
       8.25501163e-04, 7.15437764e-03, 2.38343864e-03, 1.04343274e-03,
       6.51624869e-05, -3.36087134e-04, -8.00959009e-04, -1.32774061e-03,
       -4.63023258e-04, 1.41190059e-04, 3.95951560e-04, 5.16236201e-03,
       7.20226089e-04, 3.00508249e-03, 4.21529356e-03, -7.61506613e-04,
       -3.88639607e-03, -3.72618856e-03, -1.62588898e-03, 5.35400910e-03,
       -3.31847841e-05, 2.47009704e-03, 1.72402791e-03, -7.92588631e-04,
       -7.00012688e-03, -3.95813817e-03, 6.34189637e-04, 2.55104387e-04,
       5.73108112e-03, 1.34486845e-03, 7.39202253e-04, 7.09330721e-04,
       1.77291955e-03, -3.85036896e-04, -1.07146660e-03, 8.72501871e-04,
       -3.26739944e-04, 4.42659669e-03, 2.55133084e-04, -2.15192256e-03,
       -1.67637179e-03, -9.80558572e-04, -1.60003116e-03,
       -5.60290180e-04, -1.12712278e-03, -8.24915129e-04, 5.93920122e-05,
       -8.13843915e-04, -2.48558610e-03, -1.05351361e-03,
       -5.49526128e-04, -1.79312739e-03, -9.66076565e-04,
       -1.96268340e-03, 1.19740027e-03, 1.19986397e-03, -2.80023040e-03,
       -2.47497996e-03, 2.50159675e-04, 4.59577277e-04, -9.93824448e-04,
       1.62178301e-03, 6.55980781e-04, 3.42807407e-03, 4.88848309e-04,
       -2.35936441e-03, -5.93766163e-04, 6.28078240e-04, -2.18147863e-04,
       -4.64416982e-04, 1.68452607e-04, 3.37083708e-04, 1.24588050e-03,
       -8.50555603e-04, -1.06614630e-03, -2.50831502e-03,
       -1.29159761e-03, 5.62591478e-04, -4.81753424e-03, -2.47230334e-03,
       -1.81311707e-03, -1.02068309e-03, 2.72052502e-03, -6.20631455e-03,
       -4.00400255e-03, -3.85181193e-04, -1.57126773e-03,
       -7.93849584e-03, -2.92496500e-03, -1.11574808e-03, 4.02094750e-03,
       6.85823057e-03, -7.41259567e-03, -7.89514091e-03, -5.89511404e-03,
       2.07811873e-03, -3.34437168e-03, 2.18510279e-03, 2.88927788e-03,
       3.56421457e-03, 1.55726017e-03, -1.07786227e-02, -3.18393181e-03,
       -1.93894759e-03, 8.07937686e-05, -2.27977033e-03, -7.35075446e-04,
       1.40198285e-03, 3.05590918e-03, -5.90655394e-03, 1.54097134e-03,
       -5.74593549e-04, -1.39298127e-03, -5.75888371e-05,
       -5.61971357e-03, -1.90070097e-03, -1.81926962e-03,
       -3.48091591e-04, 5.61799714e-03, -4.42823954e-03, -9.68305278e-04,
       4.82848736e-05, -1.37401896e-03, -2.58325064e-03, -1.77432410e-03,
       1.78851921e-03, -2.81552644e-03, 3.10582109e-03, -4.74270666e-03,
       -9.08857118e-03, -3.55164078e-03, 4.36380599e-03, -3.63663584e-03,
       -1.53269258e-03, 1.84022286e-03, 9.71403380e-04, 2.81448872e-03,
       -3.46242753e-03, 8.92676646e-04, 2.16219109e-04, -3.41883651e-03,
       -1.97596266e-03, -3.74285528e-03, -3.75703734e-04, 9.17806407e-04,
       -1.43987092e-03, 6.31972798e-04, -3.66275548e-04, 7.55256449e-04,
       1.93579611e-03, -2.88227238e-05, -1.51223876e-03, -1.20990584e-03,
       -1.11581339e-03, 2.83142854e-03, -6.57909084e-04, 1.73220586e-03,
       1.12250098e-03, -1.54814613e-03, -6.04910217e-03, -2.99791875e-03,
       -9.77402524e-05, -7.36181682e-04, 4.15000040e-03, 2.10984657e-03,
       5.10416459e-04, 1.38059596e-03, 5.19475620e-03, 4.26668813e-03,
       -1.12909020e-03, 4.30955115e-04, -2.40275101e-03, 5.51705528e-03,
       1.40738476e-03, 5.22487739e-04, -9.85498773e-04, -6.84763654e-04,
       9.41482896e-04, -1.47207570e-03, -2.17827689e-03, -2.30366713e-03,
       2.13347003e-03, 4.05170431e-04, -7.51227082e-04, -3.26278823e-04,
       -1.01242600e-04, -1.49723620e-03, -4.23701655e-04,
       -8.25589872e-04, 8.85075191e-04, 8.80286680e-04, -1.54481165e-03,
       -2.00813706e-03, 8.98792787e-05, 5.74900128e-04, -8.70301796e-04,
       1.24325231e-03, 6.80694939e-04, 3.75654711e-03, 1.71619724e-03,
       -1.93264033e-03, -6.72406924e-04, 1.19617383e-03, 5.07362311e-05,
       2.43035494e-03, -3.02306813e-04, 9.22624080e-04, 1.92299031e-03,
       -1.61150540e-03, 1.05372041e-04, -7.20070384e-04, -1.28435134e-03,
       -2.34792315e-04, 1.89966348e-03, -2.21262826e-03, -9.02964821e-05,
       -9.87063511e-04, -1.32398753e-04, -2.06178264e-03,
       -3.02397250e-03, -8.53296777e-04, -8.04887793e-04,
       -4.54740459e-03, -1.72433746e-03, 4.91796643e-04, 3.63474060e-03,
       5.90792391e-03, -6.02536742e-03, -6.52972609e-03, -4.64150077e-03,
       2.43712799e-03, -2.88856123e-03, 7.10838533e-04, 3.30406963e-03,
       5.21482341e-03, 9.95942741e-04, -6.67044381e-03, -4.69398359e-03,
       4.43299126e-04, -2.58133258e-03, -2.87661701e-03, -5.78309176e-03,
       1.91305834e-03, 4.76211729e-03, -1.48612133e-03, -3.53069440e-03,
       -1.22629304e-03, -1.50077941e-03, -4.92293201e-03,
       -1.98616856e-03, -4.70404932e-03, -1.87421974e-04, 7.88371020e-04,
       -3.23582720e-03, -1.26563688e-03, -1.44472939e-03, 3.24155408e-04,
       1.56997878e-03, -4.78706788e-03, -1.22648058e-03, 9.98541946e-04,
       -1.85760646e-03, 5.93582075e-03, -1.96270784e-03, -6.83597056e-03,
       -1.81115838e-03, 2.97224522e-03, -2.89749797e-03, -3.75711871e-03,
       2.36042566e-03, 2.88261822e-03, 2.56376783e-03, -3.34721548e-03,
       -4.44945617e-04, -1.49137015e-03, -5.65994112e-03,
       -3.36798979e-03, -5.24394307e-03, -6.13664160e-05, 8.68631061e-04,
       -4.91495198e-03, -3.00274603e-03, 1.08224375e-03, -1.68798550e-03,
       -6.64000073e-03, -3.60729313e-03, -2.15366739e-03,
       -5.21943963e-04, 1.58937590e-03, -5.74325095e-04, 3.79023724e-04,
       2.66278599e-04, 3.73947114e-04, -7.90711609e-04, -4.14820295e-03,
       -9.46415123e-04, -2.14542451e-04, -8.39812914e-04, 3.35630006e-03,
       4.01804969e-03, 2.70852877e-04, 1.52311614e-03, 7.28614861e-03,
       7.36879744e-03, -7.88131787e-04, -5.08004101e-04, -3.86270881e-03,
       5.74661931e-03, 2.00550439e-05, 6.95790048e-04, -3.61031527e-03,
       -1.07567653e-03, 6.40086783e-03, 9.15699522e-04, -3.15032667e-03,
       -3.20804538e-03, -3.87159700e-04, -2.64232163e-03,
       -2.22108734e-04, -1.80731562e-03, -1.43744354e-03,
       -1.81181182e-03, 1.51408848e-03, 4.87968093e-04, -4.27201303e-04,
       -5.73613797e-04, -1.88447040e-04, -8.02575145e-04,
       -2.29087498e-04, -3.82711878e-04, -1.45773415e-03, 2.23858180e-04,
       -1.91420477e-04, 9.42178653e-04, 5.10345271e-04, -7.97758170e-04,
       -5.88598195e-04, 7.39565585e-04, 1.76584709e-03, 5.38495230e-03,
       -1.05082733e-03, -1.77418493e-04, -1.68214261e-04,
       -1.49152440e-03, 5.91804273e-04, -1.25128462e-03, -3.14925215e-03,
       7.18584342e-04, 4.12930967e-03, -2.80126673e-03, 8.32665188e-04,
       -1.28108007e-03, 1.24557456e-03, -2.66688992e-03, -5.09276288e-04,
       -3.17285216e-04, -7.59309274e-04, -1.99745339e-03,
       -6.45444816e-05, 1.11800584e-03, 1.20037701e-03, 9.07177979e-04,
       -9.21930827e-04, -3.07493517e-03, -2.93383328e-03, 5.06026612e-04,
       -1.26750453e-03, -1.15042599e-03, 1.27747154e-03, 5.23850927e-03,
       1.59259548e-03, -5.88890072e-03, -3.63799441e-03, 1.14784436e-03,
       -2.21600430e-03, -3.57731525e-03, -6.91201072e-03,
       -3.78392113e-04, 3.45570152e-03, -1.58728403e-03, -3.24833789e-03,
       -3.70131945e-03, -2.25192169e-03, -4.24472149e-03,
       -1.73986191e-03, -3.38527770e-03, 6.91113295e-04, 4.03571827e-03,
       -2.13592849e-03, -7.38340430e-03, -1.57812866e-03, 5.47468371e-04,
       -1.66743901e-03, -3.57254385e-03, 2.04558182e-03, 1.94859377e-03,
       1.54559908e-03, -2.85193860e-03, 2.45445920e-03, -2.41181604e-03,
       -5.67773008e-04, 9.35511955e-04, -1.23985473e-03, -1.89635053e-03,
       2.30043521e-03, 4.57092794e-03, 6.81022275e-03, -3.64436232e-03,
       9.20909861e-06, -1.74439291e-03, -6.76193601e-03, -5.05332556e-03,
       -4.50532604e-03, 1.77886826e-03, 9.93472990e-04, -2.99586728e-03,
       -2.67034513e-03, 2.21773633e-03, -3.68265808e-03, -3.46079213e-03,
       -9.24309497e-05, -2.15276913e-03, 7.91294849e-04, 3.49052902e-03,
       2.23682378e-04, -1.35167420e-03, 7.87640980e-04, -1.40538032e-03,
       -3.65134724e-03, -3.67103901e-04, -3.21474276e-03,
       -1.38594944e-03, -4.21588455e-04, -8.85197427e-04, 2.57236324e-03,
       -6.29373972e-05, 4.13078320e-04, 4.90521407e-03, 5.37137268e-03,
       -1.02446735e-04, -6.64998603e-04, -2.09832401e-03, 4.07621358e-03,
       -9.07323047e-05, -1.57805862e-05, -3.88707081e-03,
       -9.12974996e-04, 7.74225453e-03, 2.78753531e-03, -2.14835675e-03,
       -2.80199642e-03, -1.17082265e-03, -4.10860451e-03,
       -8.01241549e-04, -3.75699182e-03, -7.31223205e-04, 5.23525116e-04,
       2.96242768e-03, 1.40333979e-03, 1.92613865e-04, -6.65052561e-04,
       -8.61274661e-04, -3.81033053e-04, -2.60399655e-04, 6.77020114e-04,
       6.28918177e-04, -1.50225090e-03, -5.64174734e-05, -3.33469681e-04,
       1.94916982e-04, -4.69573220e-04, -2.93094083e-04, 2.20616581e-04,
       2.64436612e-03, 7.57804234e-03, -4.46043385e-04, -2.61588779e-04,
       -7.18277181e-04, -6.27529109e-04, 6.39132457e-04, -8.58762884e-04,
       -2.56236759e-03, 6.64710242e-04, 5.56181790e-03, -2.18517310e-03,
       3.48884118e-04, -4.35927679e-04, 2.90399417e-03, -4.09310358e-03,
       1.08246742e-04, -9.29696544e-05, -7.27588544e-04, -3.37667740e-03,
       -1.54719944e-03, 1.87138841e-03, 3.04888305e-03, 1.49447622e-03,
       -7.39211275e-04, 6.58095407e-04, -5.17203822e-04, -1.95035839e-03,
       -1.49745218e-04, -1.90244886e-04, 1.44945807e-03, 1.11867930e-03,
       1.56612630e-04, -7.48268049e-03, -2.61521549e-03, -1.39683951e-04,
       -8.12593789e-04, -5.83086803e-04, -4.09071892e-03,
       -5.85279544e-04, 8.70833581e-04, -3.08850594e-03, -2.95214891e-03,
       -3.78893688e-03, -5.46287978e-04, -2.75643542e-03, 2.39390135e-03,
       -2.26002675e-03, 3.45853856e-03, 4.37828386e-03, -4.35870432e-04,
       -5.45365689e-03, 5.30552818e-04, 2.23395950e-03, -3.24517459e-05,
       -6.68417802e-03, 1.66631979e-03, 5.12701087e-03, 7.13386759e-03,
       -7.78287882e-04, 1.04674778e-04, 1.44266151e-03, -1.13833004e-04,
       -3.33088730e-03, -9.32469498e-03, -4.92046456e-05, 4.38686088e-03,
       4.56294743e-03, -7.49800878e-04, -3.37949418e-03, -6.69716508e-04,
       -1.39012653e-03, -5.92571869e-03, -1.47627480e-03, 3.09649878e-03,
       1.36724382e-03, 1.74435193e-03, -1.78559718e-03, -1.05461595e-03,
       3.30005772e-03, -2.29022000e-03, -2.52414658e-03, 1.72681152e-03,
       -7.03739061e-05, 2.36367714e-03, 4.28456860e-03, 3.09640286e-03,
       -3.40657163e-04, 2.42141541e-03, -4.83316882e-03, -2.02449597e-03,
       -3.57663259e-03, -5.22217806e-03, 1.39366172e-03, 3.10812821e-03,
       1.44118676e-03, 1.31795439e-03, 8.38460634e-04, -1.80643809e-03,
       -1.34899525e-03, -3.28397308e-03, 9.45417152e-04, 2.50747520e-03,
       2.64284387e-03, 1.36690680e-03, -2.93007761e-05, -1.01992446e-04,
       -2.10706750e-03, -3.43726599e-04, 5.49566373e-03, 2.89988006e-03,
       -2.62303249e-04, -7.40531716e-04, -9.46724380e-04,
       -3.08932667e-03, -6.17973914e-04, -3.36271315e-03, 4.49198647e-04,
       2.55165412e-03, 3.44012305e-03, 2.55307835e-03, 6.72906055e-04,
       1.57942856e-03, -2.62330705e-03, 1.59205192e-05, -2.23723488e-04,
       1.02623343e-03, 1.71137403e-03, -2.91580637e-03, 8.50439304e-04,
       9.06014408e-04, 1.12553663e-03, -7.67867139e-04, -2.96668964e-04,
       -1.17568590e-03, -2.18291581e-03, 3.91764520e-03, -2.55353609e-03,
       -6.21538085e-04, -3.74207710e-04, -8.37039202e-04,
       -1.20571489e-03, -6.76176569e-04, -1.73567154e-03, 6.36014331e-04,
       1.98071194e-03, 1.39887226e-04, 3.01333057e-04, 2.06649202e-05,
       3.11943149e-04, -1.57586276e-03, 4.91681276e-04, -1.34357088e-03,
       1.57952216e-03, 3.53164109e-03, -1.12567027e-03, 6.28030859e-04,
       -9.29430244e-04, -5.64815011e-03, -2.83276942e-03, 2.61168869e-04,
       2.54221074e-03, 4.06169845e-03, 2.18878966e-03, -2.26047565e-03,
       5.12660481e-04, 1.08791469e-03, -6.80501014e-03, 8.65625858e-04,
       9.69486369e-04, 1.45507534e-03, 1.69732870e-04, 1.74632948e-03,
       -2.87946570e-03, -7.92956271e-04, -3.02276458e-04,
       -2.72481563e-03, 3.16042732e-03, -1.87790603e-03, -3.34697776e-03,
       2.17306719e-04, 8.85240035e-04, 1.28759840e-03, -2.08316254e-04,
       -6.23803862e-05, 5.90168987e-04, -1.95261359e-03, -1.40347192e-03,
       -6.94628747e-04, 9.88967717e-03, 6.74907118e-03, -3.56190372e-03,
       -5.19152591e-03, -4.14496986e-03, -1.20463432e-03,
       -4.61475179e-03, -1.24518038e-03, 1.48029858e-03, 7.73869222e-03,
       3.79052968e-03, -1.17863435e-03, -1.87228259e-03, 1.79231912e-03,
       3.78598430e-04, -1.26055279e-03, -1.16816707e-04, 2.80609704e-03,
       8.36113875e-04, 4.18909185e-04, -2.06240546e-03, -4.77498118e-03,
       -1.73824548e-03, -6.45253854e-03, 5.07356087e-03, -1.86190635e-04,
       -1.22309860e-03, 2.17667985e-04, -8.07234610e-05, 7.44162011e-04,
       7.12868641e-04, 2.77161249e-04, 3.29569494e-03, -2.56386306e-03,
       -4.57342627e-04, 5.68628451e-03, 1.11897932e-02, 4.65858728e-03,
       -1.29525622e-04, -3.65528720e-03, -2.91315396e-03, 2.04338180e-03,
       -1.94286776e-03, 3.93562205e-03, 6.27180794e-03, 1.23758279e-02,
       2.68954621e-03, -2.20234832e-03, 1.53785734e-03, 2.23402283e-03,
       4.88081574e-03, 2.44256249e-03, -3.53083451e-04, -3.03958892e-04,
       2.91485153e-03, -1.29059621e-03, 2.14871415e-03, -1.63613283e-03,
       -4.17158566e-03, -9.13111144e-04, -1.22485671e-03,
       -6.87018503e-04, -1.97446765e-03, 6.28336798e-04, 5.75994083e-04,
       2.34657899e-03, 1.51776546e-03, -1.88654463e-04, -4.93536179e-04,
       -6.22563669e-03, 9.16405756e-04, 2.57901940e-03, 6.21374510e-03,
       3.66079086e-03, 1.05933065e-03, 3.90204286e-06, -4.23601276e-04,
       -3.71162733e-03, -5.86661836e-03, 2.09040110e-04, 6.25583285e-04,
       5.24063967e-03, 2.99988827e-03, -7.87165365e-04, 8.01278453e-04,
       1.24030106e-03, -2.99592968e-03, -1.11455377e-03, -1.65058323e-03,
       -2.35099904e-03, 2.95608910e-03, 6.69558253e-03, 1.17086642e-03,
       -1.75294685e-04, -1.36359816e-03, 3.84690356e-04, -1.71417801e-03,
       1.32703775e-04, -5.16645028e-04, 1.17798045e-03, 3.60320532e-03,
       -2.20154951e-04, 1.33322101e-04, -1.92330495e-04, -2.90347100e-03,
       -3.64775839e-03, -5.54589613e-04, 1.69145677e-03, 2.85594794e-03,
       3.68432677e-03, -9.61382524e-04, -5.58634820e-05, 8.47971649e-04,
       -7.04308320e-03, 1.41983991e-03, 1.98451127e-03, 2.73303199e-03,
       1.14265364e-04, 3.72124580e-03, -1.91161875e-03, -3.40410683e-04,
       -7.41577300e-04, -4.42392100e-03, 3.29167146e-04, 8.01252550e-04,
       1.34715461e-03, 1.98186492e-03, 3.03067197e-03, -1.05759199e-03,
       -2.36548041e-03, -2.07334291e-03, -3.24676326e-03,
       -9.46002605e-04, -1.11802865e-03, -8.35881219e-04, 4.53406293e-03,
       5.15374867e-03, -4.74532862e-04, -2.43071350e-03, -2.77756294e-03,
       -2.89794733e-03, -4.07642964e-03, -1.39994279e-03, 1.24551775e-03,
       4.32254048e-03, 3.41287279e-03, 2.81993358e-04, -2.69716117e-03,
       2.13512481e-04, -1.25549012e-03, 2.87747802e-03, 1.60797383e-03,
       6.48636930e-03, 9.84553597e-04, 3.11691896e-03, 2.16500939e-05,
       -4.65022866e-03, -4.12106328e-03, -4.90703434e-03, 3.09126591e-03,
       3.15449317e-03, 2.91045732e-03, 1.13332958e-03, 4.73252544e-03,
       4.32408694e-03, -1.36542052e-03, -2.42367969e-03, -3.39084375e-03,
       -2.82361032e-03, -1.60604448e-03, 9.40404600e-04, 5.61313657e-03,
       1.58271112e-03, -2.22793809e-04, -1.31684798e-03, 1.55686837e-04,
